{"learner":{"attributes":{"scikit_learn":"{\"_estimator_type\": \"classifier\"}"},"feature_names":["x","y","visible","x_s","y_s","dx","dy","speed","ax","ay","acceleration","extrema","dx_raw","dy_raw","speed_raw","ax_raw","ay_raw","acceleration_raw","dx_lag1","dx_lag2","dx_lag3","dy_lag1","dy_lag2","dy_lag3","speed_lag1","speed_lag2","speed_lag3","ax_lag1","ax_lag2","ax_lag3","ay_lag1","ay_lag2","ay_lag3","acceleration_lag1","acceleration_lag2","acceleration_lag3"],"feature_types":["float","float","i","float","float","float","float","float","float","float","float","int","float","float","float","float","float","float","float","float","float","float","float","float","float","float","float","float","float","float","float","float","float","float","float","float"],"gradient_booster":{"model":{"gbtree_model_param":{"num_parallel_tree":"1","num_trees":"300"},"iteration_indptr":[0,3,6,9,12,15,18,21,24,27,30,33,36,39,42,45,48,51,54,57,60,63,66,69,72,75,78,81,84,87,90,93,96,99,102,105,108,111,114,117,120,123,126,129,132,135,138,141,144,147,150,153,156,159,162,165,168,171,174,177,180,183,186,189,192,195,198,201,204,207,210,213,216,219,222,225,228,231,234,237,240,243,246,249,252,255,258,261,264,267,270,273,276,279,282,285,288,291,294,297,300],"tree_info":[0,1,2,0,1,2,0,1,2,0,1,2,0,1,2,0,1,2,0,1,2,0,1,2,0,1,2,0,1,2,0,1,2,0,1,2,0,1,2,0,1,2,0,1,2,0,1,2,0,1,2,0,1,2,0,1,2,0,1,2,0,1,2,0,1,2,0,1,2,0,1,2,0,1,2,0,1,2,0,1,2,0,1,2,0,1,2,0,1,2,0,1,2,0,1,2,0,1,2,0,1,2,0,1,2,0,1,2,0,1,2,0,1,2,0,1,2,0,1,2,0,1,2,0,1,2,0,1,2,0,1,2,0,1,2,0,1,2,0,1,2,0,1,2,0,1,2,0,1,2,0,1,2,0,1,2,0,1,2,0,1,2,0,1,2,0,1,2,0,1,2,0,1,2,0,1,2,0,1,2,0,1,2,0,1,2,0,1,2,0,1,2,0,1,2,0,1,2,0,1,2,0,1,2,0,1,2,0,1,2,0,1,2,0,1,2,0,1,2,0,1,2,0,1,2,0,1,2,0,1,2,0,1,2,0,1,2,0,1,2,0,1,2,0,1,2,0,1,2,0,1,2,0,1,2,0,1,2,0,1,2,0,1,2,0,1,2,0,1,2,0,1,2,0,1,2,0,1,2,0,1,2,0,1,2,0,1,2,0,1,2,0,1,2,0,1,2,0,1,2],"trees":[{"base_weights":[1.457888E0,1.0356624E0,1.4750199E0,1.3649545E0,7.71004E-1,1.1518347E0,1.4812146E0,1.1464666E0,1.4498667E0,3.805402E-1,1.3623385E0,1.3951094E0,4.105673E-1,1.330225E0,1.4913154E0,1.3072941E0,3.0215824E-1,1.4549786E0,9.1764706E-1,4.445928E-1,2.4157017E-1,9.708846E-1,1.4579201E0,1.4626588E0,1.0200547E0,6.878303E-2,1.3468395E0,1.475699E0,1.1941637E0,1.4934143E0,1.3852376E0,1.4021131E0,9.942857E-1,3.9130437E-1,1.0084029E-1,6.486486E-1,1.4576488E0,-1.2857145E-1,3.5753426E-1,1.1854494E0,1.1558166E-1,1.032258E0,4.615381E-2,8.3606553E-1,1.4650561E0,-7.663455E-9,1.4656372E0,6.1403507E-1,1.3558179E0,1.3923445E0,-1.15922764E-1,-1.2857145E-1,1.3884298E0,4.444768E-1,1.0230415E0,8.462522E-1,1.4226347E0,1.436094E0,4.483292E-1,-3.7078658E-1,1.4015418E0,1.2413793E-1,4.236627E-1,1.7004609E-1,3.7760255E-1,5.341233E-3,3.1034482E-1,-7.663455E-9,2.8800002E-1,1.2857142E-1,4.377018E-1,1.8274112E-1,4.1578948E-1,1.6352022E-1,-1.2328781E-2,3.3450213E-1,1.556391E-1,-1.5517244E-1,1.2E-1,3.1034475E-2,3.512195E-1,1.2857142E-1,4.4025978E-1,4.409985E-1,2.2075471E-1,5.5900495E-3,2.592798E-1,4.1871658E-1,1.5365854E-1,4.2944163E-1,1.2857142E-1,-1.0588238E-1,2.1364985E-1,1.2857142E-1,4.2040473E-1,-1.1293513E-8,3.9408287E-1,2.2053318E-1,4.3203688E-1,3.8275012E-1,4.4139642E-1,4.1074002E-1,4.45493E-1,-1.6363639E-1,1.2857142E-1,2.9056925E-1,4.3994513E-1],"categories":[],"categories_nodes":[],"categories_segments":[],"categories_sizes":[],"default_left":[0,0,0,0,0,0,0,0,0,0,0,0,0,0,0,0,0,0,0,0,0,0,0,0,0,0,0,0,0,0,0,0,0,0,0,0,0,0,0,0,0,0,0,0,0,0,0,0,0,0,0,0,0,0,0,0,0,0,0,0,0,0,0,0,0,0,0,0,0,0,0,0,0,0,0,0,0,0,0,0,0,0,0,0,0,0,0,0,0,0,0,0,0,0,0,0,0,0,0,0,0,0,0,0,0,0,0],"id":0,"left_children":[1,3,5,7,9,11,13,15,17,19,21,23,25,27,29,31,33,35,37,-1,39,41,43,45,47,49,51,53,55,57,59,61,63,-1,65,67,69,-1,-1,71,73,75,77,79,81,-1,83,85,87,89,91,-1,93,-1,95,97,99,101,-1,103,105,-1,-1,-1,-1,-1,-1,-1,-1,-1,-1,-1,-1,-1,-1,-1,-1,-1,-1,-1,-1,-1,-1,-1,-1,-1,-1,-1,-1,-1,-1,-1,-1,-1,-1,-1,-1,-1,-1,-1,-1,-1,-1,-1,-1,-1,-1],"loss_changes":[4.099453E2,1.9254614E2,1.0772656E2,1.6677612E1,2.8438E2,1.8562976E2,7.98125E1,3.7821777E1,5.913086E-1,1.1360854E2,1.6930786E1,1.8192993E1,8.2005936E1,6.49834E1,9.125E0,5.6134644E0,9.216623E0,5.60791E-1,3.996179E0,0E0,7.862628E1,5.583603E0,5.151367E-1,2.8583984E0,1.5784164E1,4.6366127E1,5.657158E0,2.8183594E0,1.3771411E2,7.109375E-1,2.8835205E1,1.1994934E0,5.8792343E0,0E0,3.056784E0,8.302702E-1,3.4777832E-1,0E0,0E0,8.156563E0,3.9417423E1,3.3729553E0,1.6466843E0,1.5406804E0,3.6273193E-1,0E0,1.0006104E0,8.476204E0,1.5032043E0,2.622261E-1,3.298522E1,0E0,2.3303223E-1,0E0,7.167347E0,4.4828552E1,5.6518555E0,8.609619E-1,0E0,1.6144756E0,2.6138794E1,0E0,0E0,0E0,0E0,0E0,0E0,0E0,0E0,0E0,0E0,0E0,0E0,0E0,0E0,0E0,0E0,0E0,0E0,0E0,0E0,0E0,0E0,0E0,0E0,0E0,0E0,0E0,0E0,0E0,0E0,0E0,0E0,0E0,0E0,0E0,0E0,0E0,0E0,0E0,0E0,0E0,0E0,0E0,0E0,0E0,0E0],"parents":[2147483647,0,0,1,1,2,2,3,3,4,4,5,5,6,6,7,7,8,8,9,9,10,10,11,11,12,12,13,13,14,14,15,15,16,16,17,17,18,18,20,20,21,21,22,22,23,23,24,24,25,25,26,26,27,27,28,28,29,29,30,30,31,31,32,32,34,34,35,35,36,36,39,39,40,40,41,41,42,42,43,43,44,44,46,46,47,47,48,48,49,49,50,50,52,52,54,54,55,55,56,56,57,57,59,59,60,60],"right_children":[2,4,6,8,10,12,14,16,18,20,22,24,26,28,30,32,34,36,38,-1,40,42,44,46,48,50,52,54,56,58,60,62,64,-1,66,68,70,-1,-1,72,74,76,78,80,82,-1,84,86,88,90,92,-1,94,-1,96,98,100,102,-1,104,106,-1,-1,-1,-1,-1,-1,-1,-1,-1,-1,-1,-1,-1,-1,-1,-1,-1,-1,-1,-1,-1,-1,-1,-1,-1,-1,-1,-1,-1,-1,-1,-1,-1,-1,-1,-1,-1,-1,-1,-1,-1,-1,-1,-1,-1,-1],"split_conditions":[-3.4862545E0,-1.9100853E0,0E0,-7.188077E0,-5.090909E-2,2.36165E0,-1.7529038E0,-2.6652951E0,1.1755197E1,1E0,2.1558441E-1,1.0192127E0,3.01E2,-6.662338E-1,2.2373083E0,-3.4467463E0,1E0,6.826107E0,-5.028763E0,4.445928E-1,4.6876213E1,4.3116882E-1,-2.055143E1,1.4779288E-13,2.929316E2,1E0,-3.288947E1,6.0369678E0,-5.0359714E-1,-1.32849E0,1.5304998E-1,2.3628832E1,-1.1513167E1,3.9130437E-1,1.44107685E1,6.06E2,1.4913721E1,-1.2857145E-1,3.5753426E-1,6.36E2,-1.2890909E0,3.753422E2,4.14E2,5.5810126E2,-6.673593E0,-7.663455E-9,1.0868319E0,-1.7316018E-1,6.995671E-1,5.1036854E0,2.4929767E0,-1.2857145E-1,4.8277597E0,4.444768E-1,3.3970776E1,6.26E2,1.14285715E-1,8.7655526E-1,4.483292E-1,1.1555974E3,2.01E2,1.2413793E-1,4.236627E-1,1.7004609E-1,3.7760255E-1,5.341233E-3,3.1034482E-1,-7.663455E-9,2.8800002E-1,1.2857142E-1,4.377018E-1,1.8274112E-1,4.1578948E-1,1.6352022E-1,-1.2328781E-2,3.3450213E-1,1.556391E-1,-1.5517244E-1,1.2E-1,3.1034475E-2,3.512195E-1,1.2857142E-1,4.4025978E-1,4.409985E-1,2.2075471E-1,5.5900495E-3,2.592798E-1,4.1871658E-1,1.5365854E-1,4.2944163E-1,1.2857142E-1,-1.0588238E-1,2.1364985E-1,1.2857142E-1,4.2040473E-1,-1.1293513E-8,3.9408287E-1,2.2053318E-1,4.3203688E-1,3.8275012E-1,4.4139642E-1,4.1074002E-1,4.45493E-1,-1.6363639E-1,1.2857142E-1,2.9056925E-1,4.3994513E-1],"split_indices":[9,32,11,9,32,17,16,32,13,2,32,17,1,32,9,32,2,34,32,0,7,29,5,10,1,2,6,13,6,16,34,17,16,0,5,0,26,0,0,1,32,26,0,7,21,0,15,28,8,6,35,0,7,0,14,1,32,35,0,3,1,0,0,0,0,0,0,0,0,0,0,0,0,0,0,0,0,0,0,0,0,0,0,0,0,0,0,0,0,0,0,0,0,0,0,0,0,0,0,0,0,0,0,0,0,0,0],"split_type":[0,0,0,0,0,0,0,0,0,0,0,0,0,0,0,0,0,0,0,0,0,0,0,0,0,0,0,0,0,0,0,0,0,0,0,0,0,0,0,0,0,0,0,0,0,0,0,0,0,0,0,0,0,0,0,0,0,0,0,0,0,0,0,0,0,0,0,0,0,0,0,0,0,0,0,0,0,0,0,0,0,0,0,0,0,0,0,0,0,0,0,0,0,0,0,0,0,0,0,0,0,0,0,0,0,0,0],"sum_hessian":[5.688311E4,2.2204443E3,5.4662664E4,9.875555E2,1.2328888E3,1.0315555E3,5.363111E4,2.8044443E2,7.071111E2,7.435555E2,4.893333E2,7.7599994E2,2.5555554E2,3.3711108E3,5.0259996E4,2.351111E2,4.5333332E1,6.986666E2,8.444444E0,8.222221E1,6.613333E2,9.822221E1,3.9111108E2,6.551111E2,1.20888885E2,1.8799998E2,6.755555E1,1.6244443E3,1.7466665E3,4.9271996E4,9.8799994E2,1.7777777E2,5.733333E1,6.666666E0,3.8666664E1,3.111111E0,6.9555554E2,1.3333333E0,7.1111107E0,7.6888885E1,5.844444E2,9.199999E1,6.222222E0,5.7777777E0,3.853333E2,1.3333333E0,6.537777E2,5.5999996E1,6.4888885E1,2.2222221E1,1.6577777E2,1.3333333E0,6.622222E1,1.6013333E3,2.311111E1,6.9422217E2,1.0524443E3,8.831111E2,4.8388887E4,8.888888E0,9.79111E2,2.222222E0,1.7555554E2,2.311111E1,3.422222E1,3.6444443E1,2.222222E0,1.3333333E0,1.7777777E0,1.3333333E0,6.9422217E2,2.0888887E1,5.5999996E1,1.5555554E2,4.2888885E2,7.822221E1,1.3777777E1,2.222222E0,3.9999998E0,2.222222E0,3.5555553E0,1.3333333E0,3.8399997E2,6.4888885E2,4.8888884E0,1.6888887E1,3.9111107E1,6.133333E1,3.5555553E0,2.0888887E1,1.3333333E0,1.2933333E2,3.6444443E1,1.3333333E0,6.4888885E1,5.333333E0,1.7777777E1,5.866666E2,1.0755555E2,2.688889E2,7.835555E2,3.8488885E2,4.982222E2,7.5555553E0,1.3333333E0,1.2977777E2,8.493333E2],"tree_param":{"num_deleted":"0","num_feature":"36","num_nodes":"107","size_leaf_vector":"1"}},{"base_weights":[-7.3001647E-1,-5.711859E-1,-7.471994E-1,-6.3362944E-1,-3.1529152E-1,-6.9066375E-1,-7.4818105E-1,-3.8982174E-1,-7.098018E-1,1.6077533E-1,-6.9759774E-1,-6.262598E-1,-7.385939E-1,-2.2456567E-1,-6.4837056E-1,-2.0389763E-1,-7.2941875E-1,-7.380658E-1,-6.5464467E-1,5.593616E-1,-4.0109596E-1,-4.0770796E-1,-7.250956E-1,-7.2061336E-1,-5.264382E-1,-3.600001E-2,-2.2216327E-1,1.7999999E-1,-6.630122E-1,-6.4602965E-1,4.3619912E-2,-7.3729575E-1,2.7272725E-1,-2.2374745E-1,-6.222559E-1,-5.5845857E-1,-7.289147E-1,-2.1566823E-1,6.747141E-1,-6.526083E-1,-1.5434088E-1,2.0547941E-1,-5.034966E-1,-5.086506E-1,-2.2111328E-1,-7.303437E-1,-2.8301892E-1,-2.699565E-1,-6.916427E-1,-1.926606E-1,-6.907533E-1,-1.0588248E-2,-2.0023225E-1,-1.7560977E-1,7.810292E-2,-2.227287E-1,-1.5428573E-1,-1.2857145E-1,2.5714284E-1,-1.9858454E-1,-6.2790714E-2,-1.0993894E-1,-2.0403431E-1,3.1034475E-2,-2.1957603E-1,2.274445E-1,-1.4229262E-2,-2.0135596E-1,7.2E-2,-2.1566823E-1,4.9655046E-3,2.6756757E-1,-1.2000001E-1,-9.82533E-2,-2.0239237E-1,-1.1661779E-8,-1.9257645E-1,-2.2064519E-1,-7.663455E-9,1.2857142E-1,-1.7560977E-1,9.549059E-3,-1.8504675E-1,-1.17391326E-1,-2.1192664E-1,-1.5652177E-1,9.183673E-2,-7.663455E-9,-2.0876005E-1],"categories":[],"categories_nodes":[],"categories_segments":[],"categories_sizes":[],"default_left":[0,0,0,0,0,0,0,0,0,0,0,0,0,0,0,0,0,0,0,0,0,0,0,0,0,0,0,0,0,0,0,0,0,0,0,0,0,0,0,0,0,0,0,0,0,0,0,0,0,0,0,0,0,0,0,0,0,0,0,0,0,0,0,0,0,0,0,0,0,0,0,0,0,0,0,0,0,0,0,0,0,0,0,0,0,0,0,0,0],"id":1,"left_children":[1,3,5,7,9,11,13,15,17,19,21,23,25,-1,27,29,31,33,35,37,39,41,43,45,47,-1,-1,-1,49,51,53,55,57,-1,59,61,63,-1,65,67,69,71,73,75,-1,77,79,81,83,85,87,-1,-1,-1,-1,-1,-1,-1,-1,-1,-1,-1,-1,-1,-1,-1,-1,-1,-1,-1,-1,-1,-1,-1,-1,-1,-1,-1,-1,-1,-1,-1,-1,-1,-1,-1,-1,-1,-1],"loss_changes":[1.5482227E2,8.860254E1,2.3300781E0,8.266943E1,1.9887997E2,2.2816772E0,1.3847656E0,6.712265E1,4.8203125E0,1.09339806E2,4.5341187E0,3.2551575E0,5.193176E-1,0E0,3.9498749E0,7.552646E1,3.173584E0,1.5500488E0,7.889984E0,4.257383E1,1.2484062E1,3.3209047E0,1.053009E0,6.264267E-1,7.915741E0,0E0,0E0,0E0,2.3793945E0,3.2150803E0,6.0570576E1,4.6173096E-2,1.8701298E0,0E0,2.2673073E0,1.1670792E1,1.7070007E0,0E0,1.5841957E1,1.8212357E0,1.0013445E1,3.7278044E0,1.2147198E0,2.1767578E0,0E0,7.1621704E-1,1.5178488E0,8.033434E0,2.369957E-1,2.1476192E0,6.40892E-1,0E0,0E0,0E0,0E0,0E0,0E0,0E0,0E0,0E0,0E0,0E0,0E0,0E0,0E0,0E0,0E0,0E0,0E0,0E0,0E0,0E0,0E0,0E0,0E0,0E0,0E0,0E0,0E0,0E0,0E0,0E0,0E0,0E0,0E0,0E0,0E0,0E0,0E0],"parents":[2147483647,0,0,1,1,2,2,3,3,4,4,5,5,6,6,7,7,8,8,9,9,10,10,11,11,12,12,14,14,15,15,16,16,17,17,18,18,19,19,20,20,21,21,22,22,23,23,24,24,28,28,29,29,30,30,31,31,32,32,34,34,35,35,36,36,38,38,39,39,40,40,41,41,42,42,43,43,45,45,46,46,47,47,48,48,49,49,50,50],"right_children":[2,4,6,8,10,12,14,16,18,20,22,24,26,-1,28,30,32,34,36,38,40,42,44,46,48,-1,-1,-1,50,52,54,56,58,-1,60,62,64,-1,66,68,70,72,74,76,-1,78,80,82,84,86,88,-1,-1,-1,-1,-1,-1,-1,-1,-1,-1,-1,-1,-1,-1,-1,-1,-1,-1,-1,-1,-1,-1,-1,-1,-1,-1,-1,-1,-1,-1,-1,-1,-1,-1,-1,-1,-1,-1],"split_conditions":[-1.7529038E0,1.1185282E1,-1.32849E0,1.410161E0,-1.2166976E0,8.7655526E-1,9.451123E1,4.71E2,-1.2151515E0,6.423182E0,-9.9439937E-1,1.2163078E0,8.745646E-1,-2.2456567E-1,1.0686562E-12,3.4406244E2,1.2455411E1,2.912568E0,9.881879E0,1E0,-3.7422743E0,-1.3320346E1,9.264069E-2,3.7662336E-1,-1.2307693E0,-3.600001E-2,-2.2216327E-1,1.7999999E-1,2.01E2,-2.511508E0,-3.982684E-1,1.3682578E0,6.2577496E2,-2.2374745E-1,-1.4528004E0,-2.6756485E0,2.746498E-26,-2.1566823E-1,-5.090909E-2,-3.2461274E0,1E0,4.3116882E-1,-4.04434E0,-1.096277E1,-2.2111328E-1,4.306277E-1,2.6060605E-1,4.0788052E2,1.3245685E0,5.390476E0,9.947598E-14,-1.0588248E-2,-2.0023225E-1,-1.7560977E-1,7.810292E-2,-2.227287E-1,-1.5428573E-1,-1.2857145E-1,2.5714284E-1,-1.9858454E-1,-6.2790714E-2,-1.0993894E-1,-2.0403431E-1,3.1034475E-2,-2.1957603E-1,2.274445E-1,-1.4229262E-2,-2.0135596E-1,7.2E-2,-2.1566823E-1,4.9655046E-3,2.6756757E-1,-1.2000001E-1,-9.82533E-2,-2.0239237E-1,-1.1661779E-8,-1.9257645E-1,-2.2064519E-1,-7.663455E-9,1.2857142E-1,-1.7560977E-1,9.549059E-3,-1.8504675E-1,-1.17391326E-1,-2.1192664E-1,-1.5652177E-1,9.183673E-2,-7.663455E-9,-2.0876005E-1],"split_indices":[16,21,16,35,31,35,10,1,32,35,31,10,25,0,25,4,22,13,10,2,31,5,32,27,6,0,0,0,1,9,32,35,4,0,32,9,14,0,32,30,2,27,9,5,0,8,8,4,10,6,34,0,0,0,0,0,0,0,0,0,0,0,0,0,0,0,0,0,0,0,0,0,0,0,0,0,0,0,0,0,0,0,0,0,0,0,0,0,0],"split_type":[0,0,0,0,0,0,0,0,0,0,0,0,0,0,0,0,0,0,0,0,0,0,0,0,0,0,0,0,0,0,0,0,0,0,0,0,0,0,0,0,0,0,0,0,0,0,0,0,0,0,0,0,0,0,0,0,0,0,0,0,0,0,0,0,0,0,0,0,0,0,0,0,0,0,0,0,0,0,0,0,0,0,0,0,0,0,0,0,0],"sum_hessian":[5.688311E4,5.5564443E3,5.1326664E4,4.465333E3,1.0911111E3,8.8799994E2,5.0438664E4,1.0644443E3,3.4008887E3,4.862222E2,6.0488885E2,3.8488885E2,5.0311108E2,5.0245332E4,1.9333333E2,6.8888885E2,3.7555554E2,2.2404443E3,1.1604443E3,2.8444443E2,2.0177777E2,5.3777775E1,5.511111E2,1.9466666E2,1.9022221E2,1.7777777E0,5.013333E2,1.7777777E0,1.9155554E2,2.4666666E2,4.422222E2,3.7288885E2,2.6666665E0,2.0946665E3,1.4577777E2,5.093333E2,6.511111E2,2.311111E1,2.613333E2,9.911111E1,1.02666664E2,7.1111107E0,4.6666664E1,3.1111109E1,5.1999994E2,1.8977777E2,4.8888884E0,7.555555E1,1.1466666E2,1.1111111E1,1.8044443E2,8.444444E0,2.3822221E2,1.12888885E2,3.293333E2,3.622222E2,1.0666666E1,1.3333333E0,1.3333333E0,1.3244444E2,1.3333332E1,1.991111E2,3.102222E2,2.222222E0,6.4888885E2,2.3422221E2,2.7111109E1,9.733333E1,1.7777777E0,2.311111E1,7.955555E1,3.111111E0,3.9999998E0,2.4444443E1,2.2222221E1,6.666666E0,2.4444443E1,1.8844443E2,1.3333333E0,1.3333333E0,3.5555553E0,4.0888885E1,3.4666664E1,6.666666E0,1.0799999E2,6.666666E0,4.444444E0,1.3333333E0,1.791111E2],"tree_param":{"num_deleted":"0","num_feature":"36","num_nodes":"89","size_leaf_vector":"1"}},{"base_weights":[-7.278717E-1,-1.9920126E-1,-7.3413754E-1,-6.177381E-1,1.9298805E-1,-4.0464672E-1,-7.402919E-1,-6.916997E-1,-3.4633392E-1,6.217917E-1,-6.4957273E-1,-6.473617E-1,3.3073926E-1,-7.4186486E-1,-4.1854745E-1,-2.6086962E-1,-7.023005E-1,1.520737E-1,-5.8891463E-1,-2.1673472E-1,7.9879713E-1,-4.4089463E-1,-7.28972E-1,-7.153261E-1,-2.762079E-1,6.719577E-1,-6.086957E-1,-7.450879E-1,-6.827692E-1,3.0956843E-1,-6.19446E-1,2.7272725E-1,-1.8E-1,-7.3065907E-1,-5.862786E-1,-1.894737E-1,4.0828398E-1,-1.13207586E-1,-6.4010286E-1,9.491525E-1,-2.0816332E-1,-5.1827246E-1,2.5714284E-1,-6.206898E-2,-2.2222225E-1,-7.2658324E-1,-4.285715E-1,1.22806974E-1,-6.1720073E-1,-6.746412E-1,8.554297E-1,2.5714284E-1,-6.502464E-1,-7.464055E-1,-7.07489E-1,-4.49887E-1,-7.2521555E-1,8.0058646E-1,-5.3731346E-1,2.5714284E-1,-6.328249E-1,2.5714284E-1,-1.2857145E-1,-6.206898E-2,-2.2069569E-1,-2.1630904E-1,-1.3307396E-1,-1.6363637E-1,1.7999999E-1,-1.7560977E-1,2.5714284E-1,-7.663455E-9,-1.9814326E-1,-1.1076925E-1,2.998048E-1,3.1034482E-1,-1.0800002E-1,-1.712803E-1,1.2857142E-1,-9.753488E-9,-2.1890172E-1,-1.2261528E-8,-2.1140942E-1,-2.0571432E-1,9.712229E-2,-1.9732623E-1,2.195121E-2,-2.1472083E-1,-7.663455E-9,3.0359012E-1,-1.19653195E-1,-1.2430941E-1,-2.2036615E-1,-2.108535E-1,-2.242491E-1,-1.0166115E-1,-2.1423946E-1,7.67918E-2,-1.5142009E-1,-1.5517244E-1,-2.1823272E-1,-1.7560977E-1,2.883495E-1,3.1034475E-2,-1.8397793E-1,-1.9937679E-1,-6.2068984E-2],"categories":[],"categories_nodes":[],"categories_segments":[],"categories_sizes":[],"default_left":[0,0,0,0,0,0,0,0,0,0,0,0,0,0,0,0,0,0,0,0,0,0,0,0,0,0,0,0,0,0,0,0,0,0,0,0,0,0,0,0,0,0,0,0,0,0,0,0,0,0,0,0,0,0,0,0,0,0,0,0,0,0,0,0,0,0,0,0,0,0,0,0,0,0,0,0,0,0,0,0,0,0,0,0,0,0,0,0,0,0,0,0,0,0,0,0,0,0,0,0,0,0,0,0,0,0,0],"id":2,"left_children":[1,3,5,7,9,11,13,15,17,19,21,23,25,27,29,31,33,35,37,-1,39,41,43,45,47,49,51,53,55,57,59,61,-1,63,65,-1,67,69,71,73,75,77,-1,-1,-1,79,81,83,85,87,89,-1,91,93,95,97,99,101,103,-1,105,-1,-1,-1,-1,-1,-1,-1,-1,-1,-1,-1,-1,-1,-1,-1,-1,-1,-1,-1,-1,-1,-1,-1,-1,-1,-1,-1,-1,-1,-1,-1,-1,-1,-1,-1,-1,-1,-1,-1,-1,-1,-1,-1,-1,-1,-1],"loss_changes":[1.8828516E2,1.09713806E2,1.1369922E2,6.2486267E0,1.2521061E2,1.8459343E2,2.761914E1,9.722748E-1,8.700615E0,5.51706E1,1.6171608E0,1.9402435E1,8.279101E1,9.951172E0,3.9800438E1,1.5509882E0,3.8211823E-1,5.09889E0,1.0990696E0,0E0,3.0965836E1,3.9372916E0,3.58078E-1,1.8065796E0,1.6660147E1,4.7272057E1,4.759903E0,2.0527344E0,2.78667E1,2.5056797E1,4.7414856E0,1.8701298E0,0E0,3.5486603E-1,7.078419E-1,0E0,3.7607312E0,3.1997898E0,5.636997E-1,1.2082611E1,5.508684E0,1.9123096E0,0E0,0E0,0E0,1.4137878E0,3.2214756E0,9.482181E0,1.8928108E0,6.4382076E-1,3.3148872E1,0E0,1.0412865E0,1.8652344E0,4.1210938E0,1.72537E1,7.402344E-1,8.994963E0,1.1502581E0,0E0,2.7202072E0,0E0,0E0,0E0,0E0,0E0,0E0,0E0,0E0,0E0,0E0,0E0,0E0,0E0,0E0,0E0,0E0,0E0,0E0,0E0,0E0,0E0,0E0,0E0,0E0,0E0,0E0,0E0,0E0,0E0,0E0,0E0,0E0,0E0,0E0,0E0,0E0,0E0,0E0,0E0,0E0,0E0,0E0,0E0,0E0,0E0,0E0],"parents":[2147483647,0,0,1,1,2,2,3,3,4,4,5,5,6,6,7,7,8,8,9,9,10,10,11,11,12,12,13,13,14,14,15,15,16,16,17,17,18,18,20,20,21,21,22,22,23,23,24,24,25,25,26,26,27,27,28,28,29,29,30,30,31,31,33,33,34,34,36,36,37,37,38,38,39,39,40,40,41,41,45,45,46,46,47,47,48,48,49,49,50,50,52,52,53,53,54,54,55,55,56,56,57,57,58,58,60,60],"right_children":[2,4,6,8,10,12,14,16,18,20,22,24,26,28,30,32,34,36,38,-1,40,42,44,46,48,50,52,54,56,58,60,62,-1,64,66,-1,68,70,72,74,76,78,-1,-1,-1,80,82,84,86,88,90,-1,92,94,96,98,100,102,104,-1,106,-1,-1,-1,-1,-1,-1,-1,-1,-1,-1,-1,-1,-1,-1,-1,-1,-1,-1,-1,-1,-1,-1,-1,-1,-1,-1,-1,-1,-1,-1,-1,-1,-1,-1,-1,-1,-1,-1,-1,-1,-1,-1,-1,-1,-1,-1],"split_conditions":[-6.172814E0,-2.6652951E0,0E0,-3.4467463E0,-1.4155844E0,2.36165E0,5.447949E0,8.993064E1,-1.1513167E1,1E0,8.030303E0,1.0192127E0,3.01E2,9.64078E0,7.613229E1,-6.1810637E0,8.22E2,1E0,7.911271E1,-2.1673472E-1,-3.0930737E-1,3.4211453E2,4.265692E0,4.121212E-1,2.929316E2,1E0,-3.288947E1,6.995671E-1,3.0727861E1,-7.95671E-1,2.4913822E1,8.32E2,-1.8E-1,4.5979652E1,-1.0575511E1,-1.894737E-1,7.36E2,7.12728E1,-4.3337665E0,6.93E2,4.43E2,9.27E2,2.5714284E-1,-6.206898E-2,-2.2222225E-1,9.947598E-14,5.5016623E0,1E0,6.995671E-1,5.1036854E0,7.62069E1,2.5714284E-1,4.19E2,-1.0525782E0,1.84E2,1.84E2,2.01E2,1E0,4.7E2,2.5714284E-1,1E0,2.5714284E-1,-1.2857145E-1,-6.206898E-2,-2.2069569E-1,-2.1630904E-1,-1.3307396E-1,-1.6363637E-1,1.7999999E-1,-1.7560977E-1,2.5714284E-1,-7.663455E-9,-1.9814326E-1,-1.1076925E-1,2.998048E-1,3.1034482E-1,-1.0800002E-1,-1.712803E-1,1.2857142E-1,-9.753488E-9,-2.1890172E-1,-1.2261528E-8,-2.1140942E-1,-2.0571432E-1,9.712229E-2,-1.9732623E-1,2.195121E-2,-2.1472083E-1,-7.663455E-9,3.0359012E-1,-1.19653195E-1,-1.2430941E-1,-2.2036615E-1,-2.108535E-1,-2.242491E-1,-1.0166115E-1,-2.1423946E-1,7.67918E-2,-1.5142009E-1,-1.5517244E-1,-2.1823272E-1,-1.7560977E-1,2.883495E-1,3.1034475E-2,-1.8397793E-1,-1.9937679E-1,-6.2068984E-2],"split_indices":[9,32,11,32,13,17,8,25,16,2,21,17,1,17,25,32,1,2,25,0,32,26,14,8,1,2,6,8,26,31,26,1,0,26,21,0,1,25,29,1,0,1,0,0,0,33,26,2,8,6,24,0,1,8,1,1,1,2,0,0,11,0,0,0,0,0,0,0,0,0,0,0,0,0,0,0,0,0,0,0,0,0,0,0,0,0,0,0,0,0,0,0,0,0,0,0,0,0,0,0,0,0,0,0,0,0,0],"split_type":[0,0,0,0,0,0,0,0,0,0,0,0,0,0,0,0,0,0,0,0,0,0,0,0,0,0,0,0,0,0,0,0,0,0,0,0,0,0,0,0,0,0,0,0,0,0,0,0,0,0,0,0,0,0,0,0,0,0,0,0,0,0,0,0,0,0,0,0,0,0,0,0,0,0,0,0,0,0,0,0,0,0,0,0,0,0,0,0,0,0,0,0,0,0,0,0,0,0,0,0,0,0,0,0,0,0,0],"sum_hessian":[5.688311E4,6.666666E2,5.621644E4,3.222222E2,3.4444443E2,1.0319999E3,5.518444E4,2.5199998E2,7.022222E1,2.2844443E2,1.1599999E2,7.7599994E2,2.5599998E2,5.4914664E4,2.6977777E2,6.666666E0,2.4533331E2,2.311111E1,4.7111107E1,2.6222221E1,2.0222221E2,3.3777775E1,8.222221E1,6.551111E2,1.20888885E2,1.8799998E2,6.799999E1,5.206355E4,2.8511108E3,5.8222218E1,2.1155554E2,2.6666665E0,3.9999998E0,1.9288887E2,5.2444443E1,5.333333E0,1.7777777E1,4.8888884E0,4.222222E1,1.7599998E2,2.6222221E1,3.2444443E1,1.3333333E0,2.222222E0,7.999999E1,6.2888885E2,2.6222221E1,5.5999996E1,6.4888885E1,2.2222221E1,1.6577777E2,1.3333333E0,6.6666664E1,5.0282664E4,1.7808888E3,4.413333E2,2.4097776E3,3.6888885E1,2.1333332E1,1.3333333E0,2.1022221E2,1.3333333E0,1.3333333E0,2.222222E0,1.9066666E2,2.4888887E1,2.7555553E1,2.6666665E0,1.5111111E1,3.5555553E0,1.3333333E0,1.3333333E0,4.0888885E1,6.222222E0,1.6977777E2,2.222222E0,2.3999998E1,3.1111109E1,1.3333333E0,2.6666665E0,6.2622217E2,1.0666666E1,1.5555554E1,1.0666666E1,4.5333332E1,6.133333E1,3.5555553E0,2.0888887E1,1.3333333E0,1.4755554E2,1.8222221E1,1.911111E1,4.7555553E1,1.2448888E3,4.9037773E4,3.2444443E1,1.7484443E3,3.1555553E1,4.0977774E2,2.7999998E1,2.3817776E3,3.5555553E0,3.3333332E1,2.222222E0,1.911111E1,1.951111E2,1.5111111E1],"tree_param":{"num_deleted":"0","num_feature":"36","num_nodes":"107","size_leaf_vector":"1"}},{"base_weights":[9.8338425E-1,7.688436E-1,9.9646544E-1,9.532201E-1,6.4351326E-1,7.9974365E-1,1.0002139E0,7.9403317E-1,9.9293643E-1,4.5173007E-1,9.724908E-1,9.716913E-1,3.782884E-1,9.3157476E-1,1.0042892E0,8.8784313E-1,2.6322296E-1,2.9852146E-1,6.677335E-1,1.0204087E0,3.6729902E-1,3.2587327E-2,9.7595376E-1,9.7736454E-1,1.594263E-1,1.41337E-1,9.3584234E-1,7.922251E-1,9.85074E-1,1.0048369E0,8.1839025E-1,9.0775436E-1,2.2628121E-1,2.7590582E-1,1.1440684E-1,-5.7456657E-2,8.687176E-1,3.092469E-1,-4.104915E-2,5.9564643E-2,5.3725815E-1,6.985448E-2,-5.4121226E-2,8.3429277E-1,1.0033046E0,1.93392E-1,9.8237926E-1,2.509297E-1,-4.1446534E-1,1.0047151E0,-5.064016E-2,-1.18252106E-1,9.5709026E-1,5.9364647E-1,1.0019296E0,9.935988E-1,8.037682E-1,1.0060743E0,9.6550095E-1,-1.8241125E-1,8.527992E-1,2.3525259E-1,3.0100608E-1,-9.73695E-2,2.4876635E-1,1.276279E-2,2.5635955E-1,8.472116E-2,2.8357002E-1,1.455577E-1,-9.075222E-3,2.5521904E-1,1.0500655E-1,-2.3815082E-2,2.6946598E-1,1.3646625E-1,3.0176923E-1,2.1978469E-1,-1.0580524E-1,-1.2399689E-2,2.9527077E-1,-1.7183232E-1,-1.3289408E-2,3.0766279E-1,7.654434E-2,-6.803821E-2,1.7492642E-1,2.2973268E-1,3.042503E-1,2.8168955E-1,1.1972895E-1,-4.4081695E-2,3.0181658E-1,3.027489E-1,2.8597927E-1,6.375065E-2,2.7845323E-1,2.8930625E-1,3.0212253E-1,1.4670555E-1,2.9395604E-1,-4.361669E-4,2.7102292E-1],"categories":[],"categories_nodes":[],"categories_segments":[],"categories_sizes":[],"default_left":[0,0,0,0,0,0,0,0,0,0,0,0,0,0,0,0,0,0,0,0,0,0,0,0,0,0,0,0,0,0,0,0,0,0,0,0,0,0,0,0,0,0,0,0,0,0,0,0,0,0,0,0,0,0,0,0,0,0,0,0,0,0,0,0,0,0,0,0,0,0,0,0,0,0,0,0,0,0,0,0,0,0,0,0,0,0,0,0,0,0,0,0,0,0,0,0,0,0,0,0,0,0,0],"id":3,"left_children":[1,3,5,7,9,11,13,15,17,19,21,23,25,27,29,31,33,-1,35,37,39,41,43,45,47,49,51,53,55,57,59,61,63,-1,65,-1,67,-1,-1,69,71,-1,-1,73,75,77,79,-1,81,83,85,-1,87,89,91,93,95,97,99,-1,101,-1,-1,-1,-1,-1,-1,-1,-1,-1,-1,-1,-1,-1,-1,-1,-1,-1,-1,-1,-1,-1,-1,-1,-1,-1,-1,-1,-1,-1,-1,-1,-1,-1,-1,-1,-1,-1,-1,-1,-1,-1,-1],"loss_changes":[1.7844531E2,8.428784E1,4.357422E1,8.598633E0,1.3775653E2,8.1542114E1,1.5582031E1,1.4777557E1,1.5771484E-1,6.615271E1,2.5908813E0,3.5405273E0,4.3353443E1,2.399707E1,4.8554688E0,3.16362E0,4.4566984E0,0E0,2.0253482E0,2.2930145E0,6.3150284E1,2.1230063E-1,2.2734375E0,2.940857E0,2.972529E0,3.8532215E1,3.1464233E0,3.801294E1,2.9067383E0,1.734375E0,8.81916E0,2.1425934E0,3.1934793E0,0E0,2.0491273E0,0E0,1.3253641E-1,0E0,0E0,1.6488165E1,4.5371124E1,0E0,0E0,8.006248E0,4.9224854E-1,2.1154516E0,1.5441895E0,0E0,2.2816151E-1,3.984108E-1,2.1441507E1,0E0,2.7975464E-1,3.1781342E1,2.2781982E0,4.729004E-1,8.107353E0,1.2734375E0,1.1278809E1,0E0,7.1587906E0,0E0,0E0,0E0,0E0,0E0,0E0,0E0,0E0,0E0,0E0,0E0,0E0,0E0,0E0,0E0,0E0,0E0,0E0,0E0,0E0,0E0,0E0,0E0,0E0,0E0,0E0,0E0,0E0,0E0,0E0,0E0,0E0,0E0,0E0,0E0,0E0,0E0,0E0,0E0,0E0,0E0,0E0],"parents":[2147483647,0,0,1,1,2,2,3,3,4,4,5,5,6,6,7,7,8,8,9,9,10,10,11,11,12,12,13,13,14,14,15,15,16,16,18,18,19,19,20,20,21,21,22,22,23,23,24,24,25,25,26,26,27,27,28,28,29,29,30,30,31,31,32,32,34,34,36,36,39,39,40,40,43,43,44,44,45,45,46,46,48,48,49,49,50,50,52,52,53,53,54,54,55,55,56,56,57,57,58,58,60,60],"right_children":[2,4,6,8,10,12,14,16,18,20,22,24,26,28,30,32,34,-1,36,38,40,42,44,46,48,50,52,54,56,58,60,62,64,-1,66,-1,68,-1,-1,70,72,-1,-1,74,76,78,80,-1,82,84,86,-1,88,90,92,94,96,98,100,-1,102,-1,-1,-1,-1,-1,-1,-1,-1,-1,-1,-1,-1,-1,-1,-1,-1,-1,-1,-1,-1,-1,-1,-1,-1,-1,-1,-1,-1,-1,-1,-1,-1,-1,-1,-1,-1,-1,-1,-1,-1,-1,-1],"split_conditions":[-3.2113094E0,-1.9100853E0,0E0,-7.188077E0,1.7575757E-1,1.3637881E0,-1.2063549E0,-2.6652951E0,1.1755197E1,1E0,2.01E2,7.5788033E-1,3.032E2,8.7655526E-1,9.451123E1,1E0,1E0,2.9852146E-1,2.3495237E1,1.642818E2,-4.6484036E0,-1.2597402E0,3.8614717E-1,-1.0525782E0,3.030303E-1,1E0,-3.288947E1,4.55E2,1E0,7.5788033E-1,1.7266188E-13,3.9619702E2,-1.130303E1,2.7590582E-1,1.44107685E1,-5.7456657E-2,2.3851581E2,3.092469E-1,-4.104915E-2,9.4171936E1,-9.2973053E-1,6.985448E-2,-5.4121226E-2,4.46E2,-2.3653679E1,7.056277E-1,1.4779288E-13,2.509297E-1,8.58E2,2.6406926E-1,2.4929767E0,-1.18252106E-1,4.19E2,3.4044736E2,9.094392E-14,-9.9439937E-1,-1.8441558E0,-1.1611743E0,1.84E2,-1.8241125E-1,2.01E2,2.3525259E-1,3.0100608E-1,-9.73695E-2,2.4876635E-1,1.276279E-2,2.5635955E-1,8.472116E-2,2.8357002E-1,1.455577E-1,-9.075222E-3,2.5521904E-1,1.0500655E-1,-2.3815082E-2,2.6946598E-1,1.3646625E-1,3.0176923E-1,2.1978469E-1,-1.0580524E-1,-1.2399689E-2,2.9527077E-1,-1.7183232E-1,-1.3289408E-2,3.0766279E-1,7.654434E-2,-6.803821E-2,1.7492642E-1,2.2973268E-1,3.042503E-1,2.8168955E-1,1.1972895E-1,-4.4081695E-2,3.0181658E-1,3.027489E-1,2.8597927E-1,6.375065E-2,2.7845323E-1,2.8930625E-1,3.0212253E-1,1.4670555E-1,2.9395604E-1,-4.361669E-4,2.7102292E-1],"split_indices":[16,32,11,9,32,10,9,32,13,2,1,8,1,35,10,11,2,0,22,34,9,15,32,8,5,2,6,1,11,8,35,14,6,0,5,0,24,0,0,7,32,0,0,1,13,16,10,0,0,23,35,0,1,4,35,31,13,8,1,0,1,0,0,0,0,0,0,0,0,0,0,0,0,0,0,0,0,0,0,0,0,0,0,0,0,0,0,0,0,0,0,0,0,0,0,0,0,0,0,0,0,0,0],"split_type":[0,0,0,0,0,0,0,0,0,0,0,0,0,0,0,0,0,0,0,0,0,0,0,0,0,0,0,0,0,0,0,0,0,0,0,0,0,0,0,0,0,0,0,0,0,0,0,0,0,0,0,0,0,0,0,0,0,0,0,0,0,0,0,0,0,0,0,0,0,0,0,0,0,0,0,0,0,0,0,0,0,0,0,0,0,0,0,0,0,0,0,0,0,0,0,0,0,0,0,0,0,0,0],"sum_hessian":[6.3854977E4,3.6731145E3,6.0181863E4,1.4837407E3,2.1893738E3,1.1292848E3,5.905258E4,3.0045953E2,1.1832811E3,1.3845812E3,8.047928E2,8.011298E2,3.2815503E2,3.3225596E3,5.573002E4,2.5476273E2,4.569679E1,1.1735168E3,9.764356E0,1.7755925E2,1.2070219E3,2.9924607E0,8.018003E2,7.9537134E2,5.7584734E0,2.311665E2,9.698852E1,9.26114E2,2.3964456E3,5.55619E4,1.6811844E2,2.4695784E2,7.8048906E0,7.4875264E0,3.8209263E1,1.8599024E0,7.904453E0,1.7608386E2,1.4753902E0,4.2992828E2,7.770936E2,1.4942724E0,1.4981883E0,1.3485199E2,6.669483E2,5.306758E0,7.900646E2,2.4320126E0,3.3264606E0,4.128084E1,1.8988567E2,1.2491086E0,9.573941E1,4.7764313E2,4.484709E2,2.2845486E3,1.11897156E2,5.3843547E4,1.7183534E3,3.567231E0,1.6455121E2,1.1172982E2,1.3522801E2,4.3199124E0,3.4849782E0,3.5791485E1,2.4177797E0,1.4539709E0,6.450482E0,7.414746E1,3.5578082E2,2.8926358E2,4.8783005E2,8.802388E0,1.2604961E2,3.9685872E0,6.6297974E2,2.498254E0,2.808504E0,1.3917512E0,7.8867285E2,1.9466146E0,1.379846E0,3.980659E1,1.4742489E0,1.4908693E2,4.0798733E1,2.5312456E1,7.042695E1,1.7074718E2,3.0689597E2,1.4808207E0,4.4699005E2,1.6311188E3,6.534298E2,1.9922375E1,9.1974785E1,1.2838506E3,5.2559695E4,5.1271935E1,1.6670815E3,9.257943E0,1.5529326E2],"tree_param":{"num_deleted":"0","num_feature":"36","num_nodes":"103","size_leaf_vector":"1"}},{"base_weights":[-6.4796585E-1,-4.896492E-1,-6.6579235E-1,-6.449078E-1,-3.9721552E-1,-6.121958E-1,-6.66981E-1,-6.595259E-1,-3.8400003E-1,-2.7777675E-1,-6.410233E-1,-5.5684626E-1,-1.9862013E-1,-6.673829E-1,-5.6100655E-1,-1.9949426E-1,-5.9520835E-1,-5.4698724E-1,-1.1682492E-1,-4.0137374E-1,2.364832E-1,5.7325486E-2,-6.4457107E-1,-6.459244E-1,-4.534967E-1,-6.3282186E-1,-2.0030314E-1,1.55276E-1,-5.763272E-1,-1.8992461E-1,-6.184909E-1,-7.4077815E-2,-6.0095507E-1,2.9796314E-1,-2.9462686E-1,-5.64853E-1,-1.4288655E-1,4.4206578E-1,-4.0111557E-1,2.7942023E-1,-1.6106227E-1,4.7853865E-2,-6.464112E-1,-6.498085E-1,-6.966326E-3,-1.7183596E-1,-6.180933E-1,6.380836E-2,-6.378985E-1,-1.379295E-1,-6.05228E-1,2.193241E-1,-1.4235926E-1,-2.0162012E-1,-1.668714E-1,1.3679476E-1,-1.581348E-1,2.2933407E-2,-1.8522623E-1,-5.8230452E-2,2.3630302E-1,5.3939503E-2,-1.2373599E-1,-1.8250936E-1,-2.7744494E-2,4.4645675E-2,-1.9466485E-1,-1.9301619E-1,1.5835203E-1,-1.5503657E-1,-2.4460323E-2,-1.5301749E-1,-1.972432E-1,-1.9713241E-1,-1.0255943E-1,3.880652E-2,-1.6478352E-1,-1.2654103E-1,-1.9533405E-1,-1.2072277E-1,1.7479044E-1,-9.889887E-2,-1.9358294E-1,1.09334245E-1,-1.4440991E-1,1.1612645E-2,-1.832207E-1],"categories":[],"categories_nodes":[],"categories_segments":[],"categories_sizes":[],"default_left":[0,0,0,0,0,0,0,0,0,0,0,0,0,0,0,0,0,0,0,0,0,0,0,0,0,0,0,0,0,0,0,0,0,0,0,0,0,0,0,0,0,0,0,0,0,0,0,0,0,0,0,0,0,0,0,0,0,0,0,0,0,0,0,0,0,0,0,0,0,0,0,0,0,0,0,0,0,0,0,0,0,0,0,0,0,0,0],"id":4,"left_children":[1,3,5,7,9,11,13,15,17,19,21,23,-1,25,27,-1,29,31,33,35,37,39,41,43,45,47,-1,-1,49,51,53,55,57,59,61,63,65,67,69,-1,-1,-1,71,73,-1,75,77,79,81,83,85,-1,-1,-1,-1,-1,-1,-1,-1,-1,-1,-1,-1,-1,-1,-1,-1,-1,-1,-1,-1,-1,-1,-1,-1,-1,-1,-1,-1,-1,-1,-1,-1,-1,-1,-1,-1],"loss_changes":[1.3663477E2,7.028137E1,2.3691406E0,6.736267E0,8.961368E1,2.277069E0,1.4414062E0,2.1258545E-1,4.274317E0,1.3175388E2,2.547058E0,3.9472504E0,0E0,1.171875E-2,3.0650673E0,0E0,1.2516937E0,1.5277538E0,2.9654179E0,7.05051E1,5.2870995E1,3.6366827E0,1.594635E0,5.7751465E-1,9.933884E0,1.3768768E0,0E0,0E0,2.014164E0,2.7914548E0,8.234024E-2,2.0295637E0,6.623783E-1,3.0937967E0,1.6289682E0,2.0967987E1,9.581367E1,2.8686062E1,3.6005316E0,0E0,0E0,0E0,1.1825867E0,3.2260895E-1,0E0,9.309199E0,6.088104E-1,1.115525E0,6.404877E-1,2.1655238E0,5.73452E-1,0E0,0E0,0E0,0E0,0E0,0E0,0E0,0E0,0E0,0E0,0E0,0E0,0E0,0E0,0E0,0E0,0E0,0E0,0E0,0E0,0E0,0E0,0E0,0E0,0E0,0E0,0E0,0E0,0E0,0E0,0E0,0E0,0E0,0E0,0E0,0E0],"parents":[2147483647,0,0,1,1,2,2,3,3,4,4,5,5,6,6,7,7,8,8,9,9,10,10,11,11,13,13,14,14,16,16,17,17,18,18,19,19,20,20,21,21,22,22,23,23,24,24,25,25,28,28,29,29,30,30,31,31,32,32,33,33,34,34,35,35,36,36,37,37,38,38,42,42,43,43,45,45,46,46,47,47,48,48,49,49,50,50],"right_children":[2,4,6,8,10,12,14,16,18,20,22,24,-1,26,28,-1,30,32,34,36,38,40,42,44,46,48,-1,-1,50,52,54,56,58,60,62,64,66,68,70,-1,-1,-1,72,74,-1,76,78,80,82,84,86,-1,-1,-1,-1,-1,-1,-1,-1,-1,-1,-1,-1,-1,-1,-1,-1,-1,-1,-1,-1,-1,-1,-1,-1,-1,-1,-1,-1,-1,-1,-1,-1,-1,-1,-1,-1],"split_conditions":[-1.7529038E0,-1.5417207E0,-1.2207792E0,6.0369678E0,3.0649352E-1,9.8792696E-1,9.451123E1,2.912568E0,-1.9100853E0,1.748225E1,1.818162E0,1.2163078E0,-1.9862013E-1,2.770083E-3,1.0686562E-12,-1.9949426E-1,-6.172814E0,-4.6249475E0,4.8221832E1,-1.0631977E0,-2.6793623E0,-2.8961039E0,2.746498E-26,1.3241467E0,-1.2307693E0,-1.6378066E-1,-2.0030314E-1,1.55276E-1,2.01E2,1.7890615E1,7.1876697E2,6.36E2,6.724675E0,6.558173E1,-8.166496E-1,3.8138528E0,4.71E2,1E0,6.046387E-1,2.7942023E-1,-1.6106227E-1,4.7853865E-2,3.8614717E-1,3.7662336E-1,-6.966326E-3,4.1E2,-2.8876245E-1,-2.2737368E-14,-1.07359305E-1,1.5858841E0,2.1002633E-26,2.193241E-1,-1.4235926E-1,-2.0162012E-1,-1.668714E-1,1.3679476E-1,-1.581348E-1,2.2933407E-2,-1.8522623E-1,-5.8230452E-2,2.3630302E-1,5.3939503E-2,-1.2373599E-1,-1.8250936E-1,-2.7744494E-2,4.4645675E-2,-1.9466485E-1,-1.9301619E-1,1.5835203E-1,-1.5503657E-1,-2.4460323E-2,-1.5301749E-1,-1.972432E-1,-1.9713241E-1,-1.0255943E-1,3.880652E-2,-1.6478352E-1,-1.2654103E-1,-1.9533405E-1,-1.2072277E-1,1.7479044E-1,-9.889887E-2,-1.9358294E-1,1.09334245E-1,-1.4440991E-1,1.1612645E-2,-1.832207E-1],"split_indices":[16,32,16,13,32,35,10,13,32,23,25,10,0,7,25,0,9,32,14,31,30,6,14,33,6,30,0,0,1,34,4,1,6,7,8,13,1,2,8,0,0,0,32,27,0,1,6,9,8,32,35,0,0,0,0,0,0,0,0,0,0,0,0,0,0,0,0,0,0,0,0,0,0,0,0,0,0,0,0,0,0,0,0,0,0,0,0],"split_type":[0,0,0,0,0,0,0,0,0,0,0,0,0,0,0,0,0,0,0,0,0,0,0,0,0,0,0,0,0,0,0,0,0,0,0,0,0,0,0,0,0,0,0,0,0,0,0,0,0,0,0,0,0,0,0,0,0,0,0,0,0,0,0,0,0,0,0,0,0,0,0,0,0,0,0,0,0,0,0,0,0,0,0,0,0,0,0],"sum_hessian":[4.8527723E4,4.9141133E3,4.361361E4,1.8316161E3,3.082497E3,9.574736E2,4.2656137E4,1.7329926E3,9.8623535E1,2.07038E3,1.01211725E3,4.5957776E2,4.978958E2,4.2489707E4,1.664312E2,1.588894E3,1.4409851E2,6.0604893E1,3.8018642E1,1.6693811E3,4.0099878E2,5.0392513E0,1.007078E3,2.4401157E2,2.1556621E2,3.7682315E2,4.2112883E4,1.8717875E0,1.645594E2,8.325881E0,1.3577263E2,6.450762E0,5.4154133E1,1.120442E1,2.6814222E1,1.0218994E3,6.474816E2,3.0346005E2,9.753871E1,1.8096888E0,3.2295628E0,2.1037138E0,1.00497424E3,2.424557E2,1.5558559E0,8.026287E1,1.3530333E2,2.6424901E0,3.7418066E2,1.0534435E1,1.5402496E2,1.595144E0,6.730737E0,6.770692E1,6.806572E1,2.9696894E0,3.4810724E0,1.1986551E0,5.295548E1,5.889893E0,5.3145275E0,5.229959E0,2.1584265E1,9.3544495E2,8.6454506E1,4.1115677E2,2.3632487E2,2.1747677E1,2.8171237E2,7.116378E1,2.6374935E1,7.897453E1,9.2599976E2,2.3573404E2,6.7216663E0,4.500618E1,3.5256687E1,2.1466839E1,1.13836494E2,1.5099944E0,1.1324958E0,9.814963E0,3.643657E2,4.2525935E0,6.2818413E0,1.2550968E0,1.5276987E2],"tree_param":{"num_deleted":"0","num_feature":"36","num_nodes":"87","size_leaf_vector":"1"}},{"base_weights":[-6.4582276E-1,-1.5054259E-1,-6.522654E-1,-5.341537E-1,1.6789418E-1,-3.3658573E-1,-6.585329E-1,-6.08054E-1,-2.8153217E-1,4.9978322E-1,-5.401532E-1,-6.097459E-1,1.7205548E-1,-6.601902E-1,-3.3826712E-1,-1.8340573E-1,-6.1933553E-1,1.17822565E-1,-5.043067E-1,-1.9325954E-1,6.228236E-1,-9.1292135E-2,-6.033656E-1,-6.2937E-1,-2.381583E-1,4.1360497E-1,-5.429465E-1,-6.644729E-1,-6.128857E-1,2.7868506E-1,-5.32444E-1,-1.5885264E-1,3.0508187E-1,-6.5032524E-1,-4.9645784E-1,-1.7700908E-1,3.2925737E-1,-4.2749766E-2,-5.581005E-1,7.3248667E-1,-2.0578103E-2,-3.954585E-1,6.4530855E-1,-8.381947E-2,-6.206265E-1,-3.2477313E-1,-6.460383E-1,-5.68632E-1,5.2879924E-1,-6.3312316E-1,5.7789755E-1,2.0565519E-1,-5.735271E-1,-6.184373E-1,-6.6535383E-1,-2.2573331E-1,-6.26132E-1,5.9717417E-1,-5.3252125E-1,2.3589991E-1,-5.467022E-1,1.3349296E-1,8.405409E-3,-4.264278E-2,-1.9673412E-1,-1.9288638E-1,-1.0472267E-1,-1.5319343E-1,1.4520209E-1,-1.554117E-1,2.3952381E-1,1.0677514E-2,-1.7389475E-1,1.1067607E-1,2.6232937E-1,1.2472912E-1,-9.313666E-2,-1.8846288E-1,2.7572703E-2,2.860639E-1,-1.4750765E-2,1.1647568E-1,-1.3151498E-1,3.0857638E-2,-1.8925692E-1,-1.918142E-1,6.4283855E-2,-1.963643E-1,-1.2522738E-1,6.1028954E-2,-1.9560574E-1,2.4958265E-1,-1.406174E-1,-1.9836521E-1,2.0103935E-2,2.1667552E-1,-1.8980661E-2,-9.876696E-2,-1.9881514E-1,2.5551602E-1,-1.8693703E-1,-1.9991963E-1,-1.8871735E-1,-1.849481E-1,1.0491047E-1,-1.618593E-1,-1.9636707E-1,-1.5579705E-1,2.0957479E-1,8.348875E-2,-1.9210692E-1,-1.7345835E-1,-5.0018553E-2],"categories":[],"categories_nodes":[],"categories_segments":[],"categories_sizes":[],"default_left":[0,0,0,0,0,0,0,0,0,0,0,0,0,0,0,0,0,0,0,0,0,0,0,0,0,0,0,0,0,0,0,0,0,0,0,0,0,0,0,0,0,0,0,0,0,0,0,0,0,0,0,0,0,0,0,0,0,0,0,0,0,0,0,0,0,0,0,0,0,0,0,0,0,0,0,0,0,0,0,0,0,0,0,0,0,0,0,0,0,0,0,0,0,0,0,0,0,0,0,0,0,0,0,0,0,0,0,0,0,0,0,0,0],"id":5,"left_children":[1,3,5,7,9,11,13,15,17,19,21,23,25,27,29,31,33,35,37,-1,39,41,43,45,47,49,51,53,55,57,59,-1,61,63,65,-1,67,69,71,73,75,77,79,81,83,85,87,89,91,93,95,-1,97,99,101,103,105,107,109,-1,111,-1,-1,-1,-1,-1,-1,-1,-1,-1,-1,-1,-1,-1,-1,-1,-1,-1,-1,-1,-1,-1,-1,-1,-1,-1,-1,-1,-1,-1,-1,-1,-1,-1,-1,-1,-1,-1,-1,-1,-1,-1,-1,-1,-1,-1,-1,-1,-1,-1,-1,-1,-1],"loss_changes":[1.5479883E2,7.63931E1,9.458594E1,5.1226425E0,8.0655205E1,1.3000192E2,2.4714844E1,9.332962E-1,5.934757E0,3.3256927E1,3.0561237E0,4.287155E0,5.6775574E1,9.064453E0,2.9372057E1,1.3578637E0,4.861374E-1,3.8548555E0,1.0333977E0,0E0,1.4921318E1,3.551876E0,8.0833435E-1,2.7214508E0,8.44465E0,4.2553364E1,3.5156326E0,1.3261719E0,1.9824707E1,1.5575168E1,3.9252014E0,0E0,1.2586084E-1,3.6816406E-1,7.90658E-1,0E0,2.7784035E0,2.6235795E0,5.0746536E-1,8.993706E0,4.1434073E0,1.3093735E0,1.0487483E0,8.800588E-1,7.5094986E-1,5.558031E0,7.896576E-1,1.6093411E0,3.472524E0,7.083273E-1,1.97193E1,0E0,1.5607681E0,6.171356E0,1.1738281E0,2.9528997E1,8.912231E0,5.2173595E0,1.6801014E0,0E0,2.1112404E0,0E0,0E0,0E0,0E0,0E0,0E0,0E0,0E0,0E0,0E0,0E0,0E0,0E0,0E0,0E0,0E0,0E0,0E0,0E0,0E0,0E0,0E0,0E0,0E0,0E0,0E0,0E0,0E0,0E0,0E0,0E0,0E0,0E0,0E0,0E0,0E0,0E0,0E0,0E0,0E0,0E0,0E0,0E0,0E0,0E0,0E0,0E0,0E0,0E0,0E0,0E0,0E0],"parents":[2147483647,0,0,1,1,2,2,3,3,4,4,5,5,6,6,7,7,8,8,9,9,10,10,11,11,12,12,13,13,14,14,15,15,16,16,17,17,18,18,20,20,21,21,22,22,23,23,24,24,25,25,26,26,27,27,28,28,29,29,30,30,32,32,33,33,34,34,36,36,37,37,38,38,39,39,40,40,41,41,42,42,43,43,44,44,45,45,46,46,47,47,48,48,49,49,50,50,52,52,53,53,54,54,55,55,56,56,57,57,58,58,60,60],"right_children":[2,4,6,8,10,12,14,16,18,20,22,24,26,28,30,32,34,36,38,-1,40,42,44,46,48,50,52,54,56,58,60,-1,62,64,66,-1,68,70,72,74,76,78,80,82,84,86,88,90,92,94,96,-1,98,100,102,104,106,108,110,-1,112,-1,-1,-1,-1,-1,-1,-1,-1,-1,-1,-1,-1,-1,-1,-1,-1,-1,-1,-1,-1,-1,-1,-1,-1,-1,-1,-1,-1,-1,-1,-1,-1,-1,-1,-1,-1,-1,-1,-1,-1,-1,-1,-1,-1,-1,-1,-1,-1,-1,-1,-1,-1],"split_conditions":[-6.172814E0,-2.6652951E0,0E0,-3.4467463E0,-2.405797E0,1.2892213E0,5.447949E0,8.993064E1,-1.1513167E1,1E0,-8.8188976E-1,3.7662336E-1,3.032E2,5.3199153E0,7.613229E1,2.5998072E1,8.22E2,1E0,7.911271E1,-1.9325954E-1,-4.4716662E-1,1.6623376E-1,2.787143E2,-4.0519482E-1,-6.4931256E-1,1E0,-3.288947E1,-1.0525782E0,2.01E2,-1.4610028E0,2.4913822E1,-1.5885264E-1,2.2162163E0,4.5979652E1,-1.0575511E1,-1.7700908E-1,7.36E2,7.12728E1,-4.3337665E0,-1.9100853E0,7.13E2,5.1164503E0,7.83E2,7.87E2,0E0,6.874459E-1,1.3037037E0,2.4948578E0,1.5625E-1,2.6406926E-1,2.4929767E0,2.0565519E-1,4.19E2,5.8079615E-2,6.995671E-1,1E0,4.588079E1,1E0,4.7E2,2.3589991E-1,1E0,1.3349296E-1,8.405409E-3,-4.264278E-2,-1.9673412E-1,-1.9288638E-1,-1.0472267E-1,-1.5319343E-1,1.4520209E-1,-1.554117E-1,2.3952381E-1,1.0677514E-2,-1.7389475E-1,1.1067607E-1,2.6232937E-1,1.2472912E-1,-9.313666E-2,-1.8846288E-1,2.7572703E-2,2.860639E-1,-1.4750765E-2,1.1647568E-1,-1.3151498E-1,3.0857638E-2,-1.8925692E-1,-1.918142E-1,6.4283855E-2,-1.963643E-1,-1.2522738E-1,6.1028954E-2,-1.9560574E-1,2.4958265E-1,-1.406174E-1,-1.9836521E-1,2.0103935E-2,2.1667552E-1,-1.8980661E-2,-9.876696E-2,-1.9881514E-1,2.5551602E-1,-1.8693703E-1,-1.9991963E-1,-1.8871735E-1,-1.849481E-1,1.0491047E-1,-1.618593E-1,-1.9636707E-1,-1.5579705E-1,2.0957479E-1,8.348875E-2,-1.9210692E-1,-1.7345835E-1,-5.0018553E-2],"split_indices":[9,32,11,32,13,10,8,25,16,2,13,8,1,17,25,35,1,2,25,0,32,29,0,8,20,2,6,8,1,30,26,0,19,26,21,0,1,25,29,32,0,21,1,1,23,9,9,26,13,23,35,0,1,33,8,2,25,2,0,0,11,0,0,0,0,0,0,0,0,0,0,0,0,0,0,0,0,0,0,0,0,0,0,0,0,0,0,0,0,0,0,0,0,0,0,0,0,0,0,0,0,0,0,0,0,0,0,0,0,0,0,0,0],"split_type":[0,0,0,0,0,0,0,0,0,0,0,0,0,0,0,0,0,0,0,0,0,0,0,0,0,0,0,0,0,0,0,0,0,0,0,0,0,0,0,0,0,0,0,0,0,0,0,0,0,0,0,0,0,0,0,0,0,0,0,0,0,0,0,0,0,0,0,0,0,0,0,0,0,0,0,0,0,0,0,0,0,0,0,0,0,0,0,0,0,0,0,0,0,0,0,0,0,0,0,0,0,0,0,0,0,0,0,0,0,0,0,0,0],"sum_hessian":[4.8541734E4,6.236398E2,4.7918094E4,2.8256494E2,3.4107483E2,9.339111E2,4.6984184E4,2.175247E2,6.504022E1,2.3242326E2,1.0865157E2,6.074747E2,3.264364E2,4.6741242E4,2.4294151E2,6.07601E0,2.114487E2,2.3458559E1,4.158166E1,2.2159271E1,2.1026399E2,1.37141075E1,9.493747E1,5.7634344E2,3.1131222E1,2.443194E2,8.211701E1,4.284894E4,3.8922979E3,5.8053795E1,1.8488771E2,3.5071502E0,2.5688603E0,1.6543393E2,4.6014763E1,4.9835987E0,1.847496E1,4.5277534E0,3.705391E1,1.7952654E2,3.0737446E1,1.0033911E1,3.6801972E0,3.2409935E0,9.169647E1,3.096548E1,5.453779E2,2.1937275E1,9.193948E0,3.275834E1,2.1156105E2,1.4743329E0,8.064268E1,8.177551E2,4.2031188E4,1.2936461E2,3.762933E3,4.1876453E1,1.6177341E1,1.3983757E0,1.8348933E2,1.3042679E0,1.2645924E0,2.0443692E0,1.6338957E2,2.1390394E1,2.4624369E1,2.5165567E0,1.5958404E1,3.1385121E0,1.3892412E0,1.2749785E0,3.577893E1,5.1420597E1,1.2810594E2,1.2095804E1,1.8641644E1,6.5952463E0,3.4386642E0,2.2905266E0,1.3896705E0,1.3493861E0,1.8916075E0,1.1522398E0,9.0544235E1,1.9435951E1,1.152953E1,5.240105E2,2.136748E1,1.9980639E0,1.993921E1,7.1784444E0,2.0155036E0,3.1548006E1,1.2103326E0,1.725795E2,3.8981552E1,2.2821798E1,5.782088E1,2.023972E0,8.1573114E2,4.083814E4,1.1930474E3,7.700292E1,5.236169E1,9.348233E2,2.8281099E3,3.1436825E0,3.873277E1,1.7134063E0,1.4463934E1,1.6896391E2,1.452543E1],"tree_param":{"num_deleted":"0","num_feature":"36","num_nodes":"113","size_leaf_vector":"1"}},{"base_weights":[7.8402066E-1,6.0414624E-1,7.960747E-1,7.413157E-1,4.9272865E-1,6.349009E-1,7.9919404E-1,5.463242E-1,7.8558266E-1,2.922891E-1,7.4799955E-1,7.5114536E-1,2.477732E-1,7.39519E-1,8.0282044E-1,6.797227E-1,-5.60158E-2,7.929632E-1,5.9953034E-1,9.705498E-2,4.7512072E-1,4.2800713E-1,7.8028226E-1,7.870819E-1,5.535887E-1,4.9703546E-2,7.2927207E-1,6.420814E-1,7.954758E-1,8.042311E-1,7.3418283E-1,7.021154E-1,4.5307934E-2,2.193442E-1,-1.8027279E-1,7.035521E-1,8.0154043E-1,-1.1461764E-1,6.504088E-1,7.8003615E-1,2.2423249E-2,6.437261E-1,2.1783096E-1,-1.2382681E-1,6.546607E-1,4.9160975E-1,7.870458E-1,-2.8100101E-2,7.890417E-1,3.4274837E-1,7.271253E-1,7.6025337E-1,-6.424142E-2,-1.0695552E-1,7.5135267E-1,4.9412248E-1,7.944069E-1,7.9953945E-1,6.670254E-1,7.56106E-1,8.0468327E-1,-4.970964E-1,7.4555475E-1,1.7879924E-1,2.3902825E-1,-1.4980538E-1,1.7962372E-1,-9.1724925E-2,1.6800387E-1,2.3404522E-1,7.133432E-2,5.7451315E-2,2.407033E-1,1.20466486E-1,2.3390336E-1,-5.537108E-2,2.4265958E-1,-4.9322327E-3,2.1952577E-1,2.1565706E-1,1.5316049E-2,-3.33478E-2,1.972922E-1,-1.4789848E-1,2.1445984E-1,2.1173522E-1,-8.15074E-2,-2.0415898E-2,1.911452E-1,1.8111643E-1,2.3802042E-1,2.3902617E-1,1.7592826E-1,2.5252494E-1,5.0418977E-2,2.2556047E-1,7.355882E-2,2.3753394E-1,4.3937564E-2,-5.6889687E-2,2.2083661E-1,3.0763647E-2,2.2898726E-1,2.2891088E-1,9.62535E-2,-5.3734373E-2,2.391526E-1,1.05095334E-1,2.4000472E-1,9.698548E-3,2.2824554E-1,2.2834812E-1,-2.2519805E-2,2.4197148E-1,2.3787431E-1,-1.923832E-1,6.6726245E-2,1.13628276E-1,2.3335662E-1],"categories":[],"categories_nodes":[],"categories_segments":[],"categories_sizes":[],"default_left":[0,0,0,0,0,0,0,0,0,0,0,0,0,0,0,0,0,0,0,0,0,0,0,0,0,0,0,0,0,0,0,0,0,0,0,0,0,0,0,0,0,0,0,0,0,0,0,0,0,0,0,0,0,0,0,0,0,0,0,0,0,0,0,0,0,0,0,0,0,0,0,0,0,0,0,0,0,0,0,0,0,0,0,0,0,0,0,0,0,0,0,0,0,0,0,0,0,0,0,0,0,0,0,0,0,0,0,0,0,0,0,0,0,0,0,0,0,0,0],"id":6,"left_children":[1,3,5,7,9,11,13,15,17,19,21,23,25,27,29,31,33,35,37,39,41,43,45,47,49,51,53,55,57,59,61,63,65,-1,67,69,71,-1,73,75,77,79,81,83,85,87,89,-1,91,93,95,97,99,-1,101,103,105,107,109,111,113,115,117,-1,-1,-1,-1,-1,-1,-1,-1,-1,-1,-1,-1,-1,-1,-1,-1,-1,-1,-1,-1,-1,-1,-1,-1,-1,-1,-1,-1,-1,-1,-1,-1,-1,-1,-1,-1,-1,-1,-1,-1,-1,-1,-1,-1,-1,-1,-1,-1,-1,-1,-1,-1,-1,-1,-1,-1],"loss_changes":[1.3072266E2,5.7779907E1,2.8E1,1.4272583E1,1.0734918E2,4.8484955E1,1.1441406E1,2.562268E1,1.4274292E0,4.2048035E1,9.211548E0,5.466034E0,2.3926025E1,1.6933594E1,4.4882812E0,3.6725235E0,5.868928E0,4.5593262E-1,3.093975E0,2.9115622E1,2.6266464E1,1.0949404E1,1.2495117E0,1.2838135E0,4.55534E0,1.4549127E1,2.0218391E0,2.6028961E1,5.2526855E-1,5.1171875E-1,1.5315063E1,2.0540543E0,3.3009527E0,0E0,4.9513717E0,4.2593803E0,4.3792725E-1,0E0,1.4413681E0,1.71418E0,1.4244447E1,1.6315186E1,3.516057E1,8.445834E0,3.1163406E0,1.8232851E0,4.7323608E-1,0E0,6.25885E-1,5.191164E0,6.639061E-1,3.6449528E-1,1.5721963E1,0E0,4.7959137E-1,2.7588593E1,1.6951294E0,1.3916016E-1,4.037033E0,2.1351013E0,4.8828125E-1,1.2181373E0,1.2239502E1,0E0,0E0,0E0,0E0,0E0,0E0,0E0,0E0,0E0,0E0,0E0,0E0,0E0,0E0,0E0,0E0,0E0,0E0,0E0,0E0,0E0,0E0,0E0,0E0,0E0,0E0,0E0,0E0,0E0,0E0,0E0,0E0,0E0,0E0,0E0,0E0,0E0,0E0,0E0,0E0,0E0,0E0,0E0,0E0,0E0,0E0,0E0,0E0,0E0,0E0,0E0,0E0,0E0,0E0,0E0,0E0],"parents":[2147483647,0,0,1,1,2,2,3,3,4,4,5,5,6,6,7,7,8,8,9,9,10,10,11,11,12,12,13,13,14,14,15,15,16,16,17,17,18,18,19,19,20,20,21,21,22,22,23,23,24,24,25,25,26,26,27,27,28,28,29,29,30,30,31,31,32,32,34,34,35,35,36,36,38,38,39,39,40,40,41,41,42,42,43,43,44,44,45,45,46,46,48,48,49,49,50,50,51,51,52,52,54,54,55,55,56,56,57,57,58,58,59,59,60,60,61,61,62,62],"right_children":[2,4,6,8,10,12,14,16,18,20,22,24,26,28,30,32,34,36,38,40,42,44,46,48,50,52,54,56,58,60,62,64,66,-1,68,70,72,-1,74,76,78,80,82,84,86,88,90,-1,92,94,96,98,100,-1,102,104,106,108,110,112,114,116,118,-1,-1,-1,-1,-1,-1,-1,-1,-1,-1,-1,-1,-1,-1,-1,-1,-1,-1,-1,-1,-1,-1,-1,-1,-1,-1,-1,-1,-1,-1,-1,-1,-1,-1,-1,-1,-1,-1,-1,-1,-1,-1,-1,-1,-1,-1,-1,-1,-1,-1,-1,-1,-1,-1,-1,-1],"split_conditions":[-3.017316E0,-1.5417207E0,0E0,-7.188077E0,5.7142857E-2,2.36165E0,-1.1307359E0,-2.5056276E0,7.991342E0,-4.8071237E0,8.033229E-1,1.0192127E0,3.01E2,1.0655262E0,2.2373083E0,1E0,1E0,-6.172814E0,1.287465E2,1E0,-4.9402598E-1,6.0190864E0,-4.865801E0,1.4779288E-13,2.929316E2,1E0,-3.288947E1,4.4299567E2,1E0,2.746498E-26,1.5304998E-1,3.9619702E2,2.3120166E2,2.193442E-1,2.5423819E2,-4.0034633E0,5.947456E0,-1.1461764E-1,6.4049927E2,2.37E2,3.9605356E2,6.935065E0,5.4545455E-2,-1.1397926E0,1.9E0,2E-1,1.04761906E-1,-2.8100101E-2,4.121212E-1,2.1486208E2,6.995671E-1,4.4220358E2,7.62069E1,-1.0695552E-1,4.5021644E-1,3.4044736E2,3.4293553E-3,1.9614647E2,-2.5082252E0,1.3878467E1,1.0496242E0,1.1555974E3,1.84E2,1.7879924E-1,2.3902825E-1,-1.4980538E-1,1.7962372E-1,-9.1724925E-2,1.6800387E-1,2.3404522E-1,7.133432E-2,5.7451315E-2,2.407033E-1,1.20466486E-1,2.3390336E-1,-5.537108E-2,2.4265958E-1,-4.9322327E-3,2.1952577E-1,2.1565706E-1,1.5316049E-2,-3.33478E-2,1.972922E-1,-1.4789848E-1,2.1445984E-1,2.1173522E-1,-8.15074E-2,-2.0415898E-2,1.911452E-1,1.8111643E-1,2.3802042E-1,2.3902617E-1,1.7592826E-1,2.5252494E-1,5.0418977E-2,2.2556047E-1,7.355882E-2,2.3753394E-1,4.3937564E-2,-5.6889687E-2,2.2083661E-1,3.0763647E-2,2.2898726E-1,2.2891088E-1,9.62535E-2,-5.3734373E-2,2.391526E-1,1.05095334E-1,2.4000472E-1,9.698548E-3,2.2824554E-1,2.2834812E-1,-2.2519805E-2,2.4197148E-1,2.3787431E-1,-1.923832E-1,6.6726245E-2,1.13628276E-1,2.3335662E-1],"split_indices":[16,32,11,9,32,17,9,32,13,16,22,17,1,35,9,11,2,9,24,2,32,10,13,10,1,2,6,4,11,14,34,14,25,0,24,31,26,0,4,1,24,13,6,30,23,32,32,0,8,4,8,7,24,0,16,4,26,4,6,10,17,3,1,0,0,0,0,0,0,0,0,0,0,0,0,0,0,0,0,0,0,0,0,0,0,0,0,0,0,0,0,0,0,0,0,0,0,0,0,0,0,0,0,0,0,0,0,0,0,0,0,0,0,0,0,0,0,0,0],"split_type":[0,0,0,0,0,0,0,0,0,0,0,0,0,0,0,0,0,0,0,0,0,0,0,0,0,0,0,0,0,0,0,0,0,0,0,0,0,0,0,0,0,0,0,0,0,0,0,0,0,0,0,0,0,0,0,0,0,0,0,0,0,0,0,0,0,0,0,0,0,0,0,0,0,0,0,0,0,0,0,0,0,0,0,0,0,0,0,0,0,0,0,0,0,0,0,0,0,0,0,0,0,0,0,0,0,0,0,0,0,0,0,0,0,0,0,0,0,0,0],"sum_hessian":[6.051013E4,3.8035386E3,5.670659E4,1.7022251E3,2.1013135E3,1.0805454E3,5.5626043E4,3.1740955E2,1.3848156E3,1.1782739E3,9.230394E2,8.3029034E2,2.5025507E2,3.198447E3,5.2427598E4,2.597541E2,5.7655468E1,1.3288396E3,5.5976017E1,5.7055054E2,6.077234E2,8.5894485E1,8.3714496E2,6.9997705E2,1.3031331E2,1.7809644E2,7.215863E1,1.1713134E3,2.0271335E3,5.1361293E4,1.066304E3,2.5079517E2,8.958925E0,7.1944923E0,5.0460976E1,1.23585335E2,1.2052543E3,2.4376495E0,5.353837E1,5.5273308E1,5.152772E2,3.6622763E2,2.4149576E2,2.5139923E1,6.0754562E1,2.0851955E1,8.1629297E2,1.4501987E0,6.9852686E2,6.0176388E1,7.0136925E1,2.3828997E1,1.5426744E2,1.1362933E0,7.102234E1,5.963258E2,5.749876E2,1.9599054E3,6.722813E1,4.9363388E2,5.086766E4,9.36724E0,1.0569366E3,1.2167187E2,1.2912329E2,4.564528E0,4.3943973E0,4.3649464E1,6.8115134E0,1.055518E2,1.8033527E1,1.9009435E0,1.2033533E3,1.9707022E1,3.3831345E1,1.4472381E0,5.382607E1,4.8943787E2,2.5839392E1,3.2483652E2,4.13911E1,1.3858069E2,1.0291507E2,1.7742416E1,7.3975067E0,5.780266E1,2.9519005E0,4.4133353E0,1.643862E1,3.0567728E1,7.857253E2,6.7008844E2,2.8438385E1,1.4613408E1,4.556298E1,6.617908E1,3.9578493E0,2.2389051E1,1.4399459E0,1.3403206E2,2.0235388E1,1.4564798E0,6.956586E1,2.3234308E2,3.6398273E2,1.4498224E0,5.735378E2,2.8557427E0,1.9570497E3,8.828747E0,5.839938E1,4.9073398E2,2.8999062E0,4.3776375E4,7.091283E3,7.894112E0,1.4731274E0,8.657298E1,9.703637E2],"tree_param":{"num_deleted":"0","num_feature":"36","num_nodes":"119","size_leaf_vector":"1"}},{"base_weights":[-5.943196E-1,-4.2608285E-1,-6.143228E-1,-5.776238E-1,-3.253284E-1,-5.5286384E-1,-6.1571217E-1,-6.048812E-1,-2.366073E-1,-1.9802155E-1,-5.8330214E-1,-4.9167728E-1,-1.8298125E-1,-6.1616224E-1,-5.020458E-1,-1.8389902E-1,-4.855042E-1,-4.3909812E-1,2.234288E-2,-3.115189E-1,2.3246995E-1,-4.3961316E-1,-6.056197E-1,-5.903814E-1,-3.8303348E-1,-5.757352E-1,-6.1650956E-1,1.190579E-1,-5.1740086E-1,-5.223682E-1,1.6214736E-1,4.003628E-1,-4.822356E-1,-1.7290078E-1,1.5671344E-1,-1.1445405E-1,-5.484809E-1,4.2639694E-1,-3.4518003E-1,-1.2577017E-1,-4.9649358E-1,-5.197632E-1,-1.8348926E-1,-5.9488755E-1,7.4517876E-3,-1.078146E-1,-5.6042105E-1,1.2209392E-1,-5.816358E-1,-5.2786183E-1,-1.8499392E-1,-1.28589E-1,-5.4706895E-1,-5.760447E-2,-1.715792E-1,3.3443084E-1,-1.6839467E-1,-1.1115462E-1,2.4688725E-1,6.4046667E-3,-1.5766841E-1,8.140378E-2,-1.9998583E-1,-1.5022261E-1,6.5220386E-2,-1.8697694E-1,-6.869773E-2,-1.7398739E-1,1.4501108E-1,1.508895E-1,-1.16009735E-1,1.233783E-1,-1.0349099E-1,1.090468E-1,-1.5891781E-1,-2.8651886E-2,-1.7586657E-1,-1.8100291E-1,-8.186251E-2,-1.5117775E-1,5.8891837E-2,-1.0719512E-1,-1.791143E-1,1.8497084E-1,-1.10400826E-1,-7.493571E-2,-1.770696E-1,1.09530814E-1,-1.8228865E-1,-1.3763879E-1,9.773465E-2,-1.6622344E-1,3.0072743E-2],"categories":[],"categories_nodes":[],"categories_segments":[],"categories_sizes":[],"default_left":[0,0,0,0,0,0,0,0,0,0,0,0,0,0,0,0,0,0,0,0,0,0,0,0,0,0,0,0,0,0,0,0,0,0,0,0,0,0,0,0,0,0,0,0,0,0,0,0,0,0,0,0,0,0,0,0,0,0,0,0,0,0,0,0,0,0,0,0,0,0,0,0,0,0,0,0,0,0,0,0,0,0,0,0,0,0,0,0,0,0,0,0,0],"id":7,"left_children":[1,3,5,7,9,11,13,15,17,19,21,23,-1,25,27,-1,29,31,33,35,37,39,41,43,45,47,49,-1,51,53,55,57,59,-1,61,63,65,67,69,71,73,75,-1,77,-1,79,81,83,85,87,-1,89,91,-1,-1,-1,-1,-1,-1,-1,-1,-1,-1,-1,-1,-1,-1,-1,-1,-1,-1,-1,-1,-1,-1,-1,-1,-1,-1,-1,-1,-1,-1,-1,-1,-1,-1,-1,-1,-1,-1,-1,-1],"loss_changes":[1.3426367E2,6.47204E1,2.709961E0,1.5625427E1,8.381949E1,2.492218E0,1.4765625E0,1.2236328E0,6.6795793E0,8.375758E1,2.4401855E0,3.967064E0,0E0,1.3378906E-1,2.181034E0,0E0,2.5858269E0,2.779726E0,4.6571794E0,6.32509E1,4.024238E1,2.028139E0,5.7739258E-2,5.77652E-1,9.1660385E0,1.3533478E0,9.277344E-2,0E0,1.5580826E0,1.5169163E0,5.039859E0,1.6202388E0,1.5034294E0,0E0,4.630948E0,9.5163315E1,1.4557709E1,1.5669746E1,3.3818169E0,2.4146934E0,3.0162468E0,1.4745646E0,0E0,3.842697E-1,0E0,9.170846E0,6.397743E-1,1.0600052E0,7.340164E-1,4.5022144E0,0E0,1.847197E0,6.492424E-1,0E0,0E0,0E0,0E0,0E0,0E0,0E0,0E0,0E0,0E0,0E0,0E0,0E0,0E0,0E0,0E0,0E0,0E0,0E0,0E0,0E0,0E0,0E0,0E0,0E0,0E0,0E0,0E0,0E0,0E0,0E0,0E0,0E0,0E0,0E0,0E0,0E0,0E0,0E0,0E0],"parents":[2147483647,0,0,1,1,2,2,3,3,4,4,5,5,6,6,7,7,8,8,9,9,10,10,11,11,13,13,14,14,16,16,17,17,18,18,19,19,20,20,21,21,22,22,23,23,24,24,25,25,26,26,28,28,29,29,30,30,31,31,32,32,34,34,35,35,36,36,37,37,38,38,39,39,40,40,41,41,43,43,45,45,46,46,47,47,48,48,49,49,51,51,52,52],"right_children":[2,4,6,8,10,12,14,16,18,20,22,24,-1,26,28,-1,30,32,34,36,38,40,42,44,46,48,50,-1,52,54,56,58,60,-1,62,64,66,68,70,72,74,76,-1,78,-1,80,82,84,86,88,-1,90,92,-1,-1,-1,-1,-1,-1,-1,-1,-1,-1,-1,-1,-1,-1,-1,-1,-1,-1,-1,-1,-1,-1,-1,-1,-1,-1,-1,-1,-1,-1,-1,-1,-1,-1,-1,-1,-1,-1,-1,-1],"split_conditions":[-1.7529038E0,-1.2890909E0,-1.2207792E0,6.0369678E0,3.0649352E-1,9.8792696E-1,9.451123E1,3.5524476E0,-3.2332335E0,1.748225E1,5.4545455E-2,1.2163078E0,-1.8298125E-1,2.770083E-3,1.0686562E-12,-1.8389902E-1,-1.4528004E0,6.724675E0,1E0,4.71E2,-2.6793623E0,4.04329E-1,-1.2868399E1,1.3241467E0,-1.2307693E0,-1.6378066E-1,-3.607951E1,1.190579E-1,2.01E2,4.9542413E0,-5.2813854E-2,-7.418182E0,-4.6249475E0,-1.7290078E-1,1.1471862E0,-3.982684E-1,3.6701298E0,1E0,-6.021645E0,-2.6926407E-1,2.6303663E0,-6.551587E0,-1.8348926E-1,3.7662336E-1,7.4517876E-3,-2.4848485E0,-2.8876245E-1,4.038968E-28,-1.07359305E-1,4.038968E-28,-1.8499392E-1,5.735931E0,8.87E2,-5.760447E-2,-1.715792E-1,3.3443084E-1,-1.6839467E-1,-1.1115462E-1,2.4688725E-1,6.4046667E-3,-1.5766841E-1,8.140378E-2,-1.9998583E-1,-1.5022261E-1,6.5220386E-2,-1.8697694E-1,-6.869773E-2,-1.7398739E-1,1.4501108E-1,1.508895E-1,-1.16009735E-1,1.233783E-1,-1.0349099E-1,1.090468E-1,-1.5891781E-1,-2.8651886E-2,-1.7586657E-1,-1.8100291E-1,-8.186251E-2,-1.5117775E-1,5.8891837E-2,-1.0719512E-1,-1.791143E-1,1.8497084E-1,-1.10400826E-1,-7.493571E-2,-1.770696E-1,1.09530814E-1,-1.8228865E-1,-1.3763879E-1,9.773465E-2,-1.6622344E-1,3.0072743E-2],"split_indices":[16,32,16,13,32,35,10,13,31,23,21,10,0,7,25,0,32,6,2,1,30,32,5,33,6,30,13,0,1,6,8,5,32,0,15,32,6,2,16,29,26,16,0,27,0,13,6,17,8,17,0,13,1,0,0,0,0,0,0,0,0,0,0,0,0,0,0,0,0,0,0,0,0,0,0,0,0,0,0,0,0,0,0,0,0,0,0,0,0,0,0,0,0],"split_type":[0,0,0,0,0,0,0,0,0,0,0,0,0,0,0,0,0,0,0,0,0,0,0,0,0,0,0,0,0,0,0,0,0,0,0,0,0,0,0,0,0,0,0,0,0,0,0,0,0,0,0,0,0,0,0,0,0,0,0,0,0,0,0,0,0,0,0,0,0,0,0,0,0,0,0,0,0,0,0,0,0,0,0,0,0,0,0,0,0,0,0,0,0],"sum_hessian":[3.9973594E4,4.2501436E3,3.572345E4,1.6954093E3,2.5547341E3,7.985425E2,3.4924906E4,1.5692086E3,1.262006E2,1.7117662E3,8.429679E2,3.9002563E2,4.0851685E2,3.478277E4,1.4213881E2,1.4654496E3,1.03759056E2,7.04305E1,5.5770103E1,1.3548435E3,3.569227E2,1.16109535E2,7.268584E2,2.0203789E2,1.8798775E2,3.1043005E2,3.447234E4,1.969938E0,1.4016887E2,9.8354225E1,5.404826E0,3.0375867E0,6.7392914E1,9.619945E0,4.6150158E1,7.4050226E2,6.1434125E2,2.6741034E2,8.951239E1,1.8307478E1,9.7802055E1,5.32834E1,6.7357495E2,2.0060162E2,1.4362612E0,7.4307144E1,1.136806E2,2.4377446E0,3.079923E2,5.9092953E1,3.4413246E4,1.0315443E1,1.2985342E2,1.3466809E1,8.488742E1,2.0994666E0,3.3053594E0,1.1192102E0,1.9183764E0,5.378987E0,6.2013924E1,4.1098457E1,5.0516996E0,3.4195227E2,3.9855002E2,4.9705582E2,1.17285446E2,1.3836061E1,2.5357426E2,3.658712E0,8.5853676E1,5.0526023E0,1.3254877E1,3.2690234E0,9.4533035E1,7.5463476E0,4.5737053E1,1.9461769E2,5.9839377E0,3.1987309E1,4.231983E1,1.9011648E1,9.466896E1,1.0849968E0,1.3527478E0,8.535719E0,2.994566E2,4.55247E0,5.454048E1,5.9683223E0,4.347121E0,1.286049E2,1.2485158E0],"tree_param":{"num_deleted":"0","num_feature":"36","num_nodes":"93","size_leaf_vector":"1"}},{"base_weights":[-5.923285E-1,-1.14316575E-1,-5.9920985E-1,-4.8550525E-1,1.3934591E-1,-2.8652713E-1,-6.058372E-1,-5.082081E-1,2.1888709E-1,3.7554917E-1,-5.175741E-1,-5.493933E-1,1.4133821E-1,-6.087086E-1,-3.7638718E-1,-6.028943E-1,-3.9119428E-1,7.0709574E-1,-1.4482586E-1,-1.7887616E-1,4.6623796E-1,-3.0743328E-1,-6.0510147E-1,-5.957936E-1,-3.6756828E-1,3.209615E-1,-4.7751278E-1,-5.298285E-1,-6.1224854E-1,-9.160847E-2,-5.164572E-1,-3.414709E-2,-1.8327174E-1,-1.8595286E-1,-2.650283E-1,2.5150788E-1,3.7418526E-2,-4.8675624E-1,5.127409E-1,4.6013597E-1,-4.0495992E-1,-1.8589887E-1,-1.2974447E-1,-5.978331E-1,1.1432705E-2,-1.1914663E-1,-5.410023E-1,-5.742618E-1,4.3704715E-1,1.7435312E-1,-5.0878155E-1,-3.666024E-1,-5.9940284E-1,-6.1441636E-1,-5.540102E-1,3.5845602E-1,-4.412367E-1,2.9134715E-1,-5.3009206E-1,-1.2999214E-1,8.398897E-3,-3.7986502E-2,-1.9193198E-1,1.8063396E-1,1.3034381E-3,4.127193E-3,2.0153625E-1,-1.3940486E-1,1.1165166E-1,-1.0218852E-1,4.406668E-2,6.1566187E-3,-1.7996597E-1,-9.897899E-2,1.3573916E-1,5.201053E-2,-1.7509618E-1,-1.8198632E-1,3.7848637E-2,1.520398E-1,-1.0525752E-1,-7.819989E-2,-1.8276855E-1,-1.8466565E-1,-3.4148745E-2,2.5561053E-1,-1.8054691E-1,-1.8456578E-1,-1.774534E-1,-5.388767E-3,-1.7097178E-1,-1.6941598E-1,1.4719433E-1,2.2576612E-1,-1.4945817E-1,-1.6583201E-1,-5.932525E-2],"categories":[],"categories_nodes":[],"categories_segments":[],"categories_sizes":[],"default_left":[0,0,0,0,0,0,0,0,0,0,0,0,0,0,0,0,0,0,0,0,0,0,0,0,0,0,0,0,0,0,0,0,0,0,0,0,0,0,0,0,0,0,0,0,0,0,0,0,0,0,0,0,0,0,0,0,0,0,0,0,0,0,0,0,0,0,0,0,0,0,0,0,0,0,0,0,0,0,0,0,0,0,0,0,0,0,0,0,0,0,0,0,0,0,0,0,0],"id":8,"left_children":[1,3,5,7,9,11,13,15,17,19,21,23,25,27,29,31,33,35,-1,-1,37,39,41,43,45,47,49,51,53,55,57,-1,-1,-1,59,-1,-1,61,63,65,67,-1,69,71,-1,73,75,77,79,-1,81,83,85,87,89,91,93,-1,95,-1,-1,-1,-1,-1,-1,-1,-1,-1,-1,-1,-1,-1,-1,-1,-1,-1,-1,-1,-1,-1,-1,-1,-1,-1,-1,-1,-1,-1,-1,-1,-1,-1,-1,-1,-1,-1,-1],"loss_changes":[1.3145703E2,5.3612972E1,8.1509766E1,3.8066597E0,5.2733723E1,9.230622E1,2.5200195E1,2.2478638E0,3.052378E0,2.2278309E1,1.4687881E0,4.0681915E0,3.493117E1,1.03203125E1,1.9086517E1,4.0870285E-1,2.8102427E0,2.8320956E-1,0E0,0E0,1.0393047E1,2.3188853E0,3.5209084E-1,5.4411316E-1,4.499215E0,2.5512495E1,2.6388931E0,1.8457642E1,4.2646484E0,2.5234669E1,7.032173E0,0E0,0E0,0E0,3.3747468E0,0E0,0E0,5.3410006E-1,9.935341E0,3.384021E-1,1.3707623E0,0E0,2.3215939E-1,5.2275085E-1,0E0,5.550636E0,1.9931221E0,7.1874523E-1,1.2034782E1,0E0,1.5679588E0,3.102243E1,4.557953E0,2.8222656E-1,1.123053E1,8.847133E0,6.5037613E0,0E0,2.2956238E0,0E0,0E0,0E0,0E0,0E0,0E0,0E0,0E0,0E0,0E0,0E0,0E0,0E0,0E0,0E0,0E0,0E0,0E0,0E0,0E0,0E0,0E0,0E0,0E0,0E0,0E0,0E0,0E0,0E0,0E0,0E0,0E0,0E0,0E0,0E0,0E0,0E0,0E0],"parents":[2147483647,0,0,1,1,2,2,3,3,4,4,5,5,6,6,7,7,8,8,9,9,10,10,11,11,12,12,13,13,14,14,15,15,16,16,17,17,20,20,21,21,22,22,23,23,24,24,25,25,26,26,27,27,28,28,29,29,30,30,34,34,37,37,38,38,39,39,40,40,42,42,43,43,45,45,46,46,47,47,48,48,50,50,51,51,52,52,53,53,54,54,55,55,56,56,58,58],"right_children":[2,4,6,8,10,12,14,16,18,20,22,24,26,28,30,32,34,36,-1,-1,38,40,42,44,46,48,50,52,54,56,58,-1,-1,-1,60,-1,-1,62,64,66,68,-1,70,72,-1,74,76,78,80,-1,82,84,86,88,90,92,94,-1,96,-1,-1,-1,-1,-1,-1,-1,-1,-1,-1,-1,-1,-1,-1,-1,-1,-1,-1,-1,-1,-1,-1,-1,-1,-1,-1,-1,-1,-1,-1,-1,-1,-1,-1,-1,-1,-1,-1],"split_conditions":[-6.172814E0,-2.8445494E0,0E0,1E0,-1.4155844E0,1.2892213E0,3.1233766E0,-1.2563637E1,1.7951515E1,1E0,8.030303E0,5.8858716E-1,3.032E2,-9.625134E-1,7.613229E1,4.89E2,1E0,7.07056E2,-1.4482586E-1,-1.7887616E-1,6.93E2,-9.251948E0,1.7214546E3,6.995671E-1,2.9694736E2,1E0,-3.288947E1,4.772205E1,8.2781386E-1,-9.293831E-1,2.4913822E1,-3.414709E-2,-1.8327174E-1,-1.8595286E-1,3.7391443E2,2.5150788E-1,3.7418526E-2,-1.6177511E-1,-4.4716662E-1,-4.2990355E0,9.27E2,-1.8589887E-1,8.32E2,1.4779288E-13,1.1432705E-2,1.3038961E0,1.8354978E-1,4.4220358E2,7.62069E1,1.7435312E-1,4.19E2,1E0,5.8079615E-2,1.2580086E0,1.84E2,1E0,1.84E2,2.9134715E-1,1E0,-1.2999214E-1,8.398897E-3,-3.7986502E-2,-1.9193198E-1,1.8063396E-1,1.3034381E-3,4.127193E-3,2.0153625E-1,-1.3940486E-1,1.1165166E-1,-1.0218852E-1,4.406668E-2,6.1566187E-3,-1.7996597E-1,-9.897899E-2,1.3573916E-1,5.201053E-2,-1.7509618E-1,-1.8198632E-1,3.7848637E-2,1.520398E-1,-1.0525752E-1,-7.819989E-2,-1.8276855E-1,-1.8466565E-1,-3.4148745E-2,2.5561053E-1,-1.8054691E-1,-1.8456578E-1,-1.774534E-1,-5.388767E-3,-1.7097178E-1,-1.6941598E-1,1.4719433E-1,2.2576612E-1,-1.4945817E-1,-1.6583201E-1,-5.932525E-2],"split_indices":[9,32,11,11,13,10,8,21,23,2,21,10,1,8,25,1,2,7,0,0,1,18,0,8,1,2,6,25,8,31,26,0,0,0,7,0,0,22,32,30,1,0,1,10,0,18,30,7,24,0,1,2,33,9,1,2,1,0,11,0,0,0,0,0,0,0,0,0,0,0,0,0,0,0,0,0,0,0,0,0,0,0,0,0,0,0,0,0,0,0,0,0,0,0,0,0,0],"split_type":[0,0,0,0,0,0,0,0,0,0,0,0,0,0,0,0,0,0,0,0,0,0,0,0,0,0,0,0,0,0,0,0,0,0,0,0,0,0,0,0,0,0,0,0,0,0,0,0,0,0,0,0,0,0,0,0,0,0,0,0,0,0,0,0,0,0,0,0,0,0,0,0,0,0,0,0,0,0,0,0,0,0,0,0,0,0,0,0,0,0,0,0,0,0,0,0,0],"sum_hessian":[3.998406E4,5.6768335E2,3.9416375E4,2.3008379E2,3.3759955E2,8.190187E2,3.8597355E4,2.2316946E2,6.914324E0,2.4863004E2,8.8969505E1,5.0715536E2,3.1186334E2,3.811868E4,4.7867752E2,1.2105823E2,1.0211124E2,4.0727115E0,2.8416123E0,2.0745945E1,2.2788408E2,2.7487753E1,6.1481754E1,4.0223218E2,1.0492319E2,2.4208022E2,6.978313E1,1.643668E3,3.647501E4,1.5836235E2,3.203152E2,2.1961842E0,1.18862045E2,3.4917645E1,6.7193596E1,2.9648678E0,1.1078438E0,1.0162142E1,2.1772194E2,2.6796782E0,2.4808075E1,5.935984E1,2.1219156E0,4.009989E2,1.2332761E0,4.3829746E1,6.1093445E1,2.7334728E1,2.1474548E2,1.4974174E0,6.8285706E1,4.9309766E2,1.1505704E3,3.5156805E4,1.3182074E3,6.9225494E1,8.913686E1,2.271395E0,3.180438E2,4.237795E1,2.4815647E1,3.5751998E0,6.5869417E0,1.850136E2,3.2708344E1,1.2044538E0,1.4752245E0,2.3410984E1,1.3970904E0,1.0727777E0,1.0491378E0,1.2974702E0,3.9970142E2,3.233055E1,1.1499195E1,3.2694178E0,5.7824024E1,2.6255653E1,1.0790757E0,1.9760828E2,1.7137203E1,2.0714254E1,4.7571453E1,2.4770464E2,2.45393E2,1.3309344E0,1.1492395E3,3.3941254E4,1.2155497E3,3.802519E1,1.2801823E3,8.261111E0,6.0964386E1,3.5030127E0,8.563385E1,2.97104E2,2.0939764E1],"tree_param":{"num_deleted":"0","num_feature":"36","num_nodes":"97","size_leaf_vector":"1"}},{"base_weights":[6.7501515E-1,5.2008533E-1,6.896522E-1,5.657386E-1,2.7106568E-1,5.365509E-1,6.9277614E-1,6.479721E-1,4.9163267E-1,8.235318E-3,4.5895833E-1,6.566501E-1,2.528931E-1,6.9835544E-1,6.707575E-1,4.908885E-1,6.7543846E-1,3.6936963E-1,6.8676287E-1,-1.2050245E-1,6.100985E-1,5.1096904E-1,6.718923E-2,-8.951785E-2,6.632121E-1,6.9542277E-1,1.2848827E-1,6.4284945E-1,6.9894814E-1,3.4176983E-2,6.735224E-1,5.635952E-1,-1.9572158E-1,6.866986E-1,4.4004434E-1,6.2321953E-2,4.6308047E-1,5.403636E-1,6.9489264E-1,-3.4887284E-1,2.5010278E-2,-8.782681E-2,6.50281E-1,3.1415567E-1,5.571139E-1,-1.4367773E-1,5.917348E-1,1.5130684E-1,-4.7644228E-1,6.8135107E-1,4.4714004E-1,-2.0262506E-2,2.1674356E-1,-6.690178E-2,4.9612612E-1,6.5209955E-1,-2.9302117E-1,6.99101E-1,5.281236E-1,-4.133579E-1,5.810319E-1,6.249913E-1,7.004586E-1,1.3666174E-1,2.0560943E-1,-1.2983115E-1,1.4095289E-1,1.8924017E-1,2.0957579E-1,-7.105697E-2,1.5413804E-1,-2.8144868E-2,1.9000219E-1,1.7666245E-1,9.655427E-2,2.1942087E-1,1.178516E-1,6.9596566E-2,2.0879517E-1,-1.2186756E-1,2.5397265E-1,-7.938185E-2,1.24935746E-1,2.0570597E-1,-5.6029275E-2,-4.4091856E-3,2.034304E-1,2.0796962E-1,1.4295751E-1,1.07446864E-1,-9.6852966E-2,1.8955146E-1,3.5676107E-2,-1.8066321E-1,-2.856894E-2,1.3816246E-1,2.0791432E-1,-1.3456267E-1,1.5576047E-1,2.6285458E-1,-3.9022163E-2,8.52421E-2,2.1380341E-1,1.3650484E-1,2.006173E-1,-2.4921547E-1,1.317188E-1,9.618265E-2,2.0974565E-1,4.2784914E-2,1.9410308E-1,-2.6124758E-1,1.0497593E-2,2.0213364E-1,1.6772427E-2,2.1035798E-1,1.7290086E-1,3.4670345E-2,2.1021949E-1],"categories":[],"categories_nodes":[],"categories_segments":[],"categories_sizes":[],"default_left":[0,0,0,0,0,0,0,0,0,0,0,0,0,0,0,0,0,0,0,0,0,0,0,0,0,0,0,1,0,0,0,0,0,0,0,0,0,0,0,0,0,0,0,0,0,0,0,0,0,0,0,0,0,0,0,0,0,0,0,0,0,0,0,0,0,0,0,0,0,0,0,0,0,0,0,0,0,0,0,0,0,0,0,0,0,0,0,0,0,0,0,0,0,0,0,0,0,0,0,0,0,0,0,0,0,0,0,0,0,0,0,0,0,0,0,0,0,0,0],"id":9,"left_children":[1,3,5,7,9,11,13,15,17,19,21,23,25,27,29,31,33,35,37,39,41,43,45,47,49,51,53,55,57,59,61,63,65,67,69,71,73,75,77,79,81,-1,83,85,87,89,91,-1,93,95,97,-1,-1,99,101,103,105,107,109,111,113,115,117,-1,-1,-1,-1,-1,-1,-1,-1,-1,-1,-1,-1,-1,-1,-1,-1,-1,-1,-1,-1,-1,-1,-1,-1,-1,-1,-1,-1,-1,-1,-1,-1,-1,-1,-1,-1,-1,-1,-1,-1,-1,-1,-1,-1,-1,-1,-1,-1,-1,-1,-1,-1,-1,-1,-1,-1],"loss_changes":[1.1950586E2,5.176367E1,2.2726562E1,2.3193848E1,3.5031055E1,3.288217E1,5.34375E0,7.545532E0,4.8261932E1,2.3067348E1,8.394829E0,3.39328E0,1.588612E1,7.9296875E-1,1.6860352E1,1.3857559E1,3.8098145E0,3.600702E1,5.5545044E-1,8.1604E0,2.0934525E0,3.140274E0,5.575012E0,1.8067145E0,2.341278E0,1.3585644E0,1.6392008E1,3.75E0,6.035156E-1,1.0650232E1,1.2046875E1,2.9676514E0,4.480607E0,5.418701E-1,3.7961197E0,2.6272394E1,1.6855164E1,9.991751E-1,2.1105957E-1,6.894141E0,1.7202362E1,0E0,1.6256275E0,8.582411E0,2.8992996E0,3.3710465E0,1.9842005E-1,0E0,1.6520357E-1,1.2844238E0,3.7952728E0,0E0,0E0,9.025675E0,3.4309807E0,1.0305481E0,2.2201838E0,4.9609375E-1,1.6244278E0,4.9481654E0,9.149394E-1,1.2269043E1,8.984375E-1,0E0,0E0,0E0,0E0,0E0,0E0,0E0,0E0,0E0,0E0,0E0,0E0,0E0,0E0,0E0,0E0,0E0,0E0,0E0,0E0,0E0,0E0,0E0,0E0,0E0,0E0,0E0,0E0,0E0,0E0,0E0,0E0,0E0,0E0,0E0,0E0,0E0,0E0,0E0,0E0,0E0,0E0,0E0,0E0,0E0,0E0,0E0,0E0,0E0,0E0,0E0,0E0,0E0,0E0,0E0,0E0],"parents":[2147483647,0,0,1,1,2,2,3,3,4,4,5,5,6,6,7,7,8,8,9,9,10,10,11,11,12,12,13,13,14,14,15,15,16,16,17,17,18,18,19,19,20,20,21,21,22,22,23,23,24,24,25,25,26,26,27,27,28,28,29,29,30,30,31,31,32,32,33,33,34,34,35,35,36,36,37,37,38,38,39,39,40,40,42,42,43,43,44,44,45,45,46,46,48,48,49,49,50,50,53,53,54,54,55,55,56,56,57,57,58,58,59,59,60,60,61,61,62,62],"right_children":[2,4,6,8,10,12,14,16,18,20,22,24,26,28,30,32,34,36,38,40,42,44,46,48,50,52,54,56,58,60,62,64,66,68,70,72,74,76,78,80,82,-1,84,86,88,90,92,-1,94,96,98,-1,-1,100,102,104,106,108,110,112,114,116,118,-1,-1,-1,-1,-1,-1,-1,-1,-1,-1,-1,-1,-1,-1,-1,-1,-1,-1,-1,-1,-1,-1,-1,-1,-1,-1,-1,-1,-1,-1,-1,-1,-1,-1,-1,-1,-1,-1,-1,-1,-1,-1,-1,-1,-1,-1,-1,-1,-1,-1,-1,-1,-1,-1,-1,-1],"split_conditions":[-2.237582E0,1E0,0E0,-1.2890909E0,-6.1946905E-1,1.403653E0,1.2163078E0,-7.188077E0,3.0649352E-1,2.3722944E-1,8.704221E0,-1.0525782E0,1E0,2.770083E-3,4.038968E-28,-2.1303158E0,7.367965E0,-3.0383894E0,-4.323741E0,5.61E2,2.49233E0,1.8200232E-1,8.18138E0,7.056277E-1,3.194805E-1,5.745505E-2,2.84E2,7.1168834E-1,9.05662E-1,3.9255373E0,4.17E2,3.9619702E2,2.1076918E2,-5.0327787E0,7.297126E1,8.319247E2,-3.5497835E-1,-3.4123287E0,1.6252E2,1.3206992E2,-4.9402598E-1,-8.782681E-2,2.0519412E2,1.4632034E-1,6.145756E1,6.65E2,1.224E3,1.5130684E-1,1.128E3,-4.0519482E-1,9.8615095E-2,-2.0262506E-2,2.1674356E-1,-5.885714E0,3.013013E1,1.7957759E2,8.546258E2,-1.1611743E0,5.5761606E-1,0E0,4.4086666E0,1E0,1.0459189E-12,1.3666174E-1,2.0560943E-1,-1.2983115E-1,1.4095289E-1,1.8924017E-1,2.0957579E-1,-7.105697E-2,1.5413804E-1,-2.8144868E-2,1.9000219E-1,1.7666245E-1,9.655427E-2,2.1942087E-1,1.178516E-1,6.9596566E-2,2.0879517E-1,-1.2186756E-1,2.5397265E-1,-7.938185E-2,1.24935746E-1,2.0570597E-1,-5.6029275E-2,-4.4091856E-3,2.034304E-1,2.0796962E-1,1.4295751E-1,1.07446864E-1,-9.6852966E-2,1.8955146E-1,3.5676107E-2,-1.8066321E-1,-2.856894E-2,1.3816246E-1,2.0791432E-1,-1.3456267E-1,1.5576047E-1,2.6285458E-1,-3.9022163E-2,8.52421E-2,2.1380341E-1,1.3650484E-1,2.006173E-1,-2.4921547E-1,1.317188E-1,9.618265E-2,2.0974565E-1,4.2784914E-2,1.9410308E-1,-2.6124758E-1,1.0497593E-2,2.0213364E-1,1.6772427E-2,2.1035798E-1,1.7290086E-1,3.4670345E-2,2.1021949E-1],"split_indices":[16,11,11,32,13,10,10,9,32,32,6,8,2,7,17,32,13,30,13,1,25,6,35,16,8,35,1,32,8,35,1,14,24,9,7,4,32,22,1,24,32,0,26,32,26,1,0,0,0,8,35,0,0,18,26,1,0,8,34,32,31,2,26,0,0,0,0,0,0,0,0,0,0,0,0,0,0,0,0,0,0,0,0,0,0,0,0,0,0,0,0,0,0,0,0,0,0,0,0,0,0,0,0,0,0,0,0,0,0,0,0,0,0,0,0,0,0,0,0],"split_type":[0,0,0,0,0,0,0,0,0,0,0,0,0,0,0,0,0,0,0,0,0,0,0,0,0,0,0,0,0,0,0,0,0,0,0,0,0,0,0,0,0,0,0,0,0,0,0,0,0,0,0,0,0,0,0,0,0,0,0,0,0,0,0,0,0,0,0,0,0,0,0,0,0,0,0,0,0,0,0,0,0,0,0,0,0,0,0,0,0,0,0,0,0,0,0,0,0,0,0,0,0,0,0,0,0,0,0,0,0,0,0,0,0,0,0,0,0,0,0],"sum_hessian":[5.285635E4,4.565737E3,4.8290617E4,3.8572986E3,7.084385E2,9.6909235E2,4.7321523E4,1.824716E3,2.0325826E3,2.957615E2,4.12677E2,6.799079E2,2.8918448E2,3.7730375E4,9.591147E3,2.743795E2,1.5503364E3,1.2513901E3,7.811925E2,2.4430481E2,5.1456707E1,3.640429E2,4.8634087E1,5.8169055E0,6.74091E2,6.2449768E1,2.2673471E2,4.1010843E2,3.732027E4,4.1535748E1,9.549611E3,2.482689E2,2.6110582E1,1.4777313E3,7.260504E1,2.9300653E2,9.583836E2,4.4647938E1,7.3654456E2,9.453783E1,1.4976697E2,1.9247284E0,4.953198E1,7.062529E1,2.934176E2,3.5206993E1,1.3427095E1,2.1750355E0,3.64187E0,6.1989795E2,5.4193027E1,2.0874681E0,6.03623E1,1.485841E2,7.8150604E1,4.0639487E2,3.7135706E0,3.7283812E4,3.6456696E1,2.2976427E1,1.855932E1,3.4171377E3,6.1324736E3,1.3405336E2,1.14215546E2,1.95112E1,6.5993824E0,2.6862585E2,1.2091055E3,6.915939E0,6.56891E1,2.307472E2,6.225934E1,5.0522058E2,4.5316302E2,1.7730188E1,2.691775E1,2.234502E0,7.3431006E2,9.083992E1,3.6979082E0,8.6265625E1,6.3501354E1,4.7695374E1,1.8366024E0,3.760547E1,3.301982E1,1.0628888E2,1.8712872E2,8.999841E0,2.6207151E1,1.2067238E1,1.3598567E0,2.302509E0,1.339361E0,3.3216103E1,5.866818E2,3.6463664E0,5.054666E1,8.52006E0,1.4006404E2,4.0660027E1,3.7490578E1,3.3821148E1,3.725737E2,2.0633564E0,1.6502141E0,5.883651E0,3.727793E4,9.111362E0,2.7345331E1,1.0906178E1,1.2070248E1,1.5532839E1,3.0264812E0,1.3263881E3,2.0907495E3,3.0586061E0,6.129415E3],"tree_param":{"num_deleted":"0","num_feature":"36","num_nodes":"119","size_leaf_vector":"1"}},{"base_weights":[-5.5611324E-1,-3.7685132E-1,-5.799098E-1,-5.374373E-1,-2.7951983E-1,-5.194938E-1,-5.8129007E-1,-5.6812406E-1,-1.9233379E-1,-1.6378796E-1,-5.399001E-1,-4.6858624E-1,-1.745396E-1,-5.8184284E-1,-4.483288E-1,-1.7373973E-1,-4.4477358E-1,-3.7878776E-1,2.0951683E-2,-2.6215655E-1,1.9588949E-1,-3.7399516E-1,-5.667625E-1,-5.5773824E-1,-3.4023786E-1,-5.3273267E-1,-5.8227324E-1,-4.5411266E-2,-4.8613346E-1,-4.7549364E-1,1.0722505E-1,3.6199468E-1,-4.2201325E-1,-1.6115557E-1,1.2697034E-1,-7.7767394E-2,-5.079599E-1,3.2612756E-1,-3.9747223E-1,-1.5150425E-1,-4.796261E-1,-4.3806458E-1,-1.7227457E-1,-1.6388331E-1,-5.6218E-1,-1.419398E-1,-1.6873471E-1,1.7209955E-1,-5.398176E-1,-4.815046E-1,-1.7473012E-1,-4.3139157E-1,3.7239376E-1,9.57389E-2,-5.028405E-1,-1.6944689E-1,-9.251757E-2,2.7072412E-1,-1.596757E-1,-1.02748714E-1,2.1507354E-1,-1.5924987E-1,-5.52434E-2,6.6750646E-2,-1.8487433E-1,-1.2804635E-1,6.459972E-2,-1.7689884E-1,-5.4640736E-2,-1.3477518E-1,1.1784994E-1,5.26475E-2,-1.3284077E-1,-1.6906372E-1,3.7714278E-3,9.6573755E-2,-1.5981966E-1,7.037641E-2,-1.512155E-1,6.0996715E-2,-1.1177599E-1,-7.93912E-2,-1.6999812E-1,8.2632996E-2,-1.4799824E-1,-1.0149569E-1,1.9178997E-1,-5.236316E-2,-1.6507928E-1,8.9820765E-2,-1.7164642E-1,-1.6939496E-1,3.3488415E-2,-1.1028694E-1,1.9975668E-1,9.028015E-2,-4.5520484E-2,-1.5337554E-1,4.2282697E-2],"categories":[],"categories_nodes":[],"categories_segments":[],"categories_sizes":[],"default_left":[0,0,0,0,0,0,0,0,0,0,0,0,0,0,0,0,0,0,0,0,0,0,0,0,0,0,0,0,0,0,0,0,0,0,0,0,0,0,0,0,0,0,0,0,0,0,0,0,0,0,0,0,0,0,0,0,0,0,0,0,0,0,0,0,0,0,0,0,0,0,0,0,0,0,0,0,0,0,0,0,0,0,0,0,0,0,0,0,0,0,0,0,0,0,0,0,0,0,0],"id":10,"left_children":[1,3,5,7,9,11,13,15,17,19,21,23,-1,25,27,-1,29,31,33,35,37,39,41,43,45,47,49,51,53,55,57,59,61,-1,63,65,67,69,71,73,75,77,-1,79,81,83,-1,85,87,89,-1,91,93,95,97,-1,-1,-1,-1,-1,-1,-1,-1,-1,-1,-1,-1,-1,-1,-1,-1,-1,-1,-1,-1,-1,-1,-1,-1,-1,-1,-1,-1,-1,-1,-1,-1,-1,-1,-1,-1,-1,-1,-1,-1,-1,-1,-1,-1],"loss_changes":[1.3685352E2,5.8751648E1,2.0634766E0,1.4939789E1,7.068033E1,1.7667236E0,1.7763672E0,1.5137634E0,4.6828017E0,5.7625057E1,3.0065765E0,3.9178848E0,0E0,2.734375E-1,1.7925606E0,0E0,1.9365025E0,2.1628504E0,3.3688238E0,5.7893654E1,2.7179802E1,2.361641E0,3.4539795E-1,2.757187E-1,6.5169125E0,1.3493271E0,1.6210938E-1,1.9864914E0,1.1059246E0,1.4008217E0,3.8760207E0,1.2455039E0,1.4495173E0,0E0,3.5227275E0,7.49327E1,1.4472473E1,1.5050884E1,1.7257347E0,2.360213E0,3.1414719E0,1.817215E0,0E0,3.636319E-1,1.266861E-1,1.1934703E1,0E0,9.942168E-1,8.55423E-1,3.6583643E0,0E0,5.224172E-1,1.542047E0,2.425412E-1,6.456833E-1,0E0,0E0,0E0,0E0,0E0,0E0,0E0,0E0,0E0,0E0,0E0,0E0,0E0,0E0,0E0,0E0,0E0,0E0,0E0,0E0,0E0,0E0,0E0,0E0,0E0,0E0,0E0,0E0,0E0,0E0,0E0,0E0,0E0,0E0,0E0,0E0,0E0,0E0,0E0,0E0,0E0,0E0,0E0,0E0],"parents":[2147483647,0,0,1,1,2,2,3,3,4,4,5,5,6,6,7,7,8,8,9,9,10,10,11,11,13,13,14,14,16,16,17,17,18,18,19,19,20,20,21,21,22,22,23,23,24,24,25,25,26,26,27,27,28,28,29,29,30,30,31,31,32,32,34,34,35,35,36,36,37,37,38,38,39,39,40,40,41,41,43,43,44,44,45,45,47,47,48,48,49,49,51,51,52,52,53,53,54,54],"right_children":[2,4,6,8,10,12,14,16,18,20,22,24,-1,26,28,-1,30,32,34,36,38,40,42,44,46,48,50,52,54,56,58,60,62,-1,64,66,68,70,72,74,76,78,-1,80,82,84,-1,86,88,90,-1,92,94,96,98,-1,-1,-1,-1,-1,-1,-1,-1,-1,-1,-1,-1,-1,-1,-1,-1,-1,-1,-1,-1,-1,-1,-1,-1,-1,-1,-1,-1,-1,-1,-1,-1,-1,-1,-1,-1,-1,-1,-1,-1,-1,-1,-1,-1],"split_conditions":[-1.6363636E0,-1.2890909E0,-1.1280906E0,6.0369678E0,3.0649352E-1,4.33E2,9.451123E1,2.912568E0,-3.2332335E0,1.748225E1,-1.9648269E-1,3.3875323E2,-1.745396E-1,2.770083E-3,2.01E2,-1.7373973E-1,-1.4528004E0,6.724675E0,1E0,4.71E2,-2.520689E0,5.021645E-1,3.6796537E-1,-1.7203463E0,9.8792696E-1,-1.6378066E-1,-3.607951E1,1.748018E2,1.7319479E-13,7.54E2,-5.2813854E-2,-7.418182E0,1.6514286E1,-1.6115557E-1,1.1471862E0,-3.5497835E-1,3.6701298E0,-1.1611743E0,-4.315512E0,3.865258E2,-1.4578192E0,1.6315789E0,-1.7227457E-1,2.5707583E0,-2.0246513E0,-1.1549784E0,-1.6873471E-1,-9.626168E-1,-1.07359305E-1,4.038968E-28,-1.7473012E-1,3.4989178E-1,5.5810126E2,-6.8212105E-14,8.87E2,-1.6944689E-1,-9.251757E-2,2.7072412E-1,-1.596757E-1,-1.02748714E-1,2.1507354E-1,-1.5924987E-1,-5.52434E-2,6.6750646E-2,-1.8487433E-1,-1.2804635E-1,6.459972E-2,-1.7689884E-1,-5.4640736E-2,-1.3477518E-1,1.1784994E-1,5.26475E-2,-1.3284077E-1,-1.6906372E-1,3.7714278E-3,9.6573755E-2,-1.5981966E-1,7.037641E-2,-1.512155E-1,6.0996715E-2,-1.1177599E-1,-7.93912E-2,-1.6999812E-1,8.2632996E-2,-1.4799824E-1,-1.0149569E-1,1.9178997E-1,-5.236316E-2,-1.6507928E-1,8.9820765E-2,-1.7164642E-1,-1.6939496E-1,3.3488415E-2,-1.1028694E-1,1.9975668E-1,9.028015E-2,-4.5520484E-2,-1.5337554E-1,4.2282697E-2],"split_indices":[16,32,16,13,32,1,10,13,31,23,21,4,0,7,1,0,32,6,2,1,30,32,32,9,35,30,13,1,34,1,8,5,21,0,15,32,6,8,9,4,31,23,0,10,30,6,0,21,8,17,0,19,7,23,1,0,0,0,0,0,0,0,0,0,0,0,0,0,0,0,0,0,0,0,0,0,0,0,0,0,0,0,0,0,0,0,0,0,0,0,0,0,0,0,0,0,0,0,0],"split_type":[0,0,0,0,0,0,0,0,0,0,0,0,0,0,0,0,0,0,0,0,0,0,0,0,0,0,0,0,0,0,0,0,0,0,0,0,0,0,0,0,0,0,0,0,0,0,0,0,0,0,0,0,0,0,0,0,0,0,0,0,0,0,0,0,0,0,0,0,0,0,0,0,0,0,0,0,0,0,0,0,0,0,0,0,0,0,0,0,0,0,0,0,0,0,0,0,0,0,0],"sum_hessian":[3.2131584E4,3.767497E3,2.8364088E4,1.420051E3,2.347446E3,6.419559E2,2.772213E4,1.3034973E3,1.1655368E2,1.6262511E3,7.211949E2,3.579806E2,2.8397525E2,2.7604E4,1.1813198E2,1.1933062E3,1.1019123E2,6.1774506E1,5.477918E1,1.2772152E3,3.4903586E2,1.02579025E2,6.1861584E2,2.0927242E2,1.4870816E2,2.5060455E2,2.7353395E4,1.0322045E1,1.0780994E2,1.04513405E2,5.6778255E0,2.9992878E0,5.8775215E1,8.095164E0,4.6684013E1,7.305273E2,5.466879E2,2.865835E2,6.245238E1,3.3806515E1,6.8772514E1,3.727687E1,5.81339E2,2.7563648E0,2.0651605E2,7.944836E1,6.92598E1,2.2622008E0,2.4834236E2,4.82597E1,2.7305135E4,5.3484626E0,4.9735823E0,2.8770685E0,1.0493287E2,6.655456E1,3.7958847E1,2.347518E0,3.3303075E0,1.0165303E0,1.9827574E0,3.9481625E1,1.929359E1,4.198763E1,4.6963844E0,3.332282E2,3.972991E2,4.3643802E2,1.102499E2,2.224739E1,2.643361E2,4.3681884E0,5.8084194E1,8.9345665E0,2.4871948E1,3.958878E0,6.481364E1,3.1019058E0,3.4174965E1,1.0082207E0,1.7481443E0,3.9546773E0,2.0256137E2,3.6412827E1,4.3035534E1,1.2129291E0,1.0492717E0,7.3973594E0,2.4094499E2,4.7799444E0,4.3479755E1,4.2625823E0,1.0858803E0,1.3405163E0,3.633066E0,1.4547927E0,1.4222759E0,1.03782776E2,1.1500951E0],"tree_param":{"num_deleted":"0","num_feature":"36","num_nodes":"99","size_leaf_vector":"1"}},{"base_weights":[-5.5425084E-1,-8.739444E-2,-5.617906E-1,-4.6667072E-1,1.04418874E-1,-2.458661E-1,-5.690003E-1,-5.667034E-1,-3.0108467E-1,2.8174266E-1,-4.7126526E-1,-5.262588E-1,9.550504E-2,-5.7237524E-1,-3.165246E-1,-1.6155192E-1,-1.7259271E-1,-4.838985E-1,-9.6038595E-2,-5.3139836E-1,3.616734E-1,-7.928798E-2,-5.378575E-1,-5.439142E-1,-1.7891833E-1,2.5576332E-1,-4.158017E-1,-4.7839177E-1,-5.767194E-1,-5.3537656E-2,-4.6758512E-1,4.6991434E-2,-1.101823E-1,-1.75387E-1,-2.5619724E-1,3.3051497E-1,-1.9282894E-1,3.7073635E-2,-1.712405E-1,4.3520916E-1,-5.3269114E-2,-4.559648E-1,4.813854E-1,7.4333837E-3,-5.874057E-1,1.1787429E-1,-5.483077E-1,-3.9220777E-1,4.340936E-1,-5.302256E-1,3.253679E-1,-1.8781275E-1,-5.628961E-1,-2.981808E-1,-5.600903E-1,-5.7941985E-1,-5.0598305E-1,3.0291495E-1,-3.8254285E-1,2.4702612E-1,-4.8291096E-1,-1.5436818E-1,1.4265177E-2,-1.6593868E-1,1.9419987E-3,5.6505263E-2,1.7926037E-1,-8.3372466E-2,1.2429287E-1,1.9619353E-2,-1.6175613E-1,-1.097279E-1,2.4427699E-1,-1.3872275E-1,1.1254423E-1,-5.2967537E-2,-1.7970753E-1,1.4775865E-1,-1.04175724E-1,-1.6527435E-1,5.5843912E-2,1.9282484E-1,-1.5311864E-1,2.7745414E-1,-5.3988345E-2,-1.7207918E-1,4.1070245E-2,-1.16595924E-1,1.1546475E-1,-1.2693733E-1,5.715252E-2,-6.0380506E-3,-1.7320743E-1,-1.7342578E-1,-1.39590055E-2,2.2135979E-1,-1.6885668E-1,-1.7412381E-1,-1.6540763E-1,5.613437E-3,-1.5733191E-1,-9.562681E-2,1.3914816E-1,1.6628976E-1,-1.3576826E-1,-1.5187335E-1,-4.9146645E-2],"categories":[],"categories_nodes":[],"categories_segments":[],"categories_sizes":[],"default_left":[0,0,0,0,0,0,0,0,0,0,0,0,0,0,0,0,0,0,0,0,0,0,0,0,0,0,0,0,0,0,0,0,0,0,0,0,0,0,0,0,0,0,0,0,0,0,0,0,0,0,0,0,0,0,0,0,0,0,0,0,0,0,0,0,0,0,0,0,0,0,0,0,0,0,0,0,0,0,0,0,0,0,0,0,0,0,0,0,0,0,0,0,0,0,0,0,0,0,0,0,0,0,0,0,0,0,0],"id":11,"left_children":[1,3,5,7,9,11,13,15,17,19,21,23,25,27,29,31,-1,33,35,37,39,41,43,45,47,49,51,53,55,57,59,-1,-1,-1,61,-1,63,-1,-1,65,67,69,71,73,75,77,79,81,83,85,87,89,91,93,95,97,99,101,103,-1,105,-1,-1,-1,-1,-1,-1,-1,-1,-1,-1,-1,-1,-1,-1,-1,-1,-1,-1,-1,-1,-1,-1,-1,-1,-1,-1,-1,-1,-1,-1,-1,-1,-1,-1,-1,-1,-1,-1,-1,-1,-1,-1,-1,-1,-1,-1],"loss_changes":[1.1306152E2,3.728944E1,7.188867E1,2.6802979E0,3.492074E1,6.775406E1,2.616211E1,2.772026E-1,2.463262E0,1.7166182E1,2.0618553E0,2.2851334E0,2.6313126E1,1.2180664E1,1.6265308E1,2.930835E-1,0E0,6.563368E-1,4.015568E0,6.842303E-1,7.2968903E0,2.9398513E0,1.8616829E0,1.1381683E0,2.822178E0,1.3528086E1,2.466545E0,1.9763458E1,5.2753906E0,1.77932E1,5.548332E0,0E0,0E0,0E0,1.0101004E0,0E0,2.2442474E0,0E0,0E0,8.006031E0,3.9780378E0,3.9184308E-1,1.894641E0,1.3333647E0,1.9512749E-1,7.387907E-1,8.051071E-1,2.2328672E0,1.887172E0,6.6416454E-1,9.705887E0,2.8920085E0,3.5041142E-1,2.986737E1,3.7543945E0,4.6191406E-1,1.0468445E1,7.4410934E0,5.421567E0,0E0,1.8372574E0,0E0,0E0,0E0,0E0,0E0,0E0,0E0,0E0,0E0,0E0,0E0,0E0,0E0,0E0,0E0,0E0,0E0,0E0,0E0,0E0,0E0,0E0,0E0,0E0,0E0,0E0,0E0,0E0,0E0,0E0,0E0,0E0,0E0,0E0,0E0,0E0,0E0,0E0,0E0,0E0,0E0,0E0,0E0,0E0,0E0,0E0],"parents":[2147483647,0,0,1,1,2,2,3,3,4,4,5,5,6,6,7,7,8,8,9,9,10,10,11,11,12,12,13,13,14,14,15,15,17,17,18,18,19,19,20,20,21,21,22,22,23,23,24,24,25,25,26,26,27,27,28,28,29,29,30,30,34,34,36,36,39,39,40,40,41,41,42,42,43,43,44,44,45,45,46,46,47,47,48,48,49,49,50,50,51,51,52,52,53,53,54,54,55,55,56,56,57,57,58,58,60,60],"right_children":[2,4,6,8,10,12,14,16,18,20,22,24,26,28,30,32,-1,34,36,38,40,42,44,46,48,50,52,54,56,58,60,-1,-1,-1,62,-1,64,-1,-1,66,68,70,72,74,76,78,80,82,84,86,88,90,92,94,96,98,100,102,104,-1,106,-1,-1,-1,-1,-1,-1,-1,-1,-1,-1,-1,-1,-1,-1,-1,-1,-1,-1,-1,-1,-1,-1,-1,-1,-1,-1,-1,-1,-1,-1,-1,-1,-1,-1,-1,-1,-1,-1,-1,-1,-1,-1,-1,-1,-1,-1],"split_conditions":[-6.172814E0,-3.22711E0,0E0,-1.1285714E1,-2.8034632E0,1.0779595E0,3.1233766E0,4.89E2,8.05E2,1E0,1.0577465E1,4.121212E-1,3.02E2,-9.625134E-1,8.086683E1,1E0,-1.7259271E-1,1.156E3,-2.3430736E0,1.5215442E1,-4.4716662E-1,9.276814E0,4.265692E0,9.947598E-14,7.3641336E-1,1E0,4.3532468E2,4.772205E1,8.2781386E-1,-9.293831E-1,2.4913822E1,4.6991434E-2,-1.101823E-1,-1.75387E-1,1.0009307E2,3.3051497E-1,1E0,3.7073635E-2,-1.712405E-1,-1.8081694E0,1.8874459E-1,-2.5127273E0,1E0,6.931838E0,2.787143E2,1.9186957E2,6.0286015E-1,1.3766234E-1,3.0888908E0,1.7391305E-1,-3.7756002E0,2.6406926E-1,-1.8942337E1,1E0,5.8079615E-2,1.2580086E0,1.84E2,-1.2151515E0,1.9614647E2,2.4702612E-1,1E0,-1.5436818E-1,1.4265177E-2,-1.6593868E-1,1.9419987E-3,5.6505263E-2,1.7926037E-1,-8.3372466E-2,1.2429287E-1,1.9619353E-2,-1.6175613E-1,-1.097279E-1,2.4427699E-1,-1.3872275E-1,1.1254423E-1,-5.2967537E-2,-1.7970753E-1,1.4775865E-1,-1.04175724E-1,-1.6527435E-1,5.5843912E-2,1.9282484E-1,-1.5311864E-1,2.7745414E-1,-5.3988345E-2,-1.7207918E-1,4.1070245E-2,-1.16595924E-1,1.1546475E-1,-1.2693733E-1,5.715252E-2,-6.0380506E-3,-1.7320743E-1,-1.7342578E-1,-1.39590055E-2,2.2135979E-1,-1.6885668E-1,-1.7412381E-1,-1.6540763E-1,5.613437E-3,-1.5733191E-1,-9.562681E-2,1.3914816E-1,1.6628976E-1,-1.3576826E-1,-1.5187335E-1,-4.9146645E-2],"split_indices":[9,32,11,21,6,17,8,1,1,2,22,8,1,8,25,2,0,0,22,26,32,35,14,33,19,2,4,25,8,31,26,0,0,0,17,0,2,0,0,32,29,31,11,21,0,1,27,30,24,23,18,32,6,2,33,9,1,32,4,0,11,0,0,0,0,0,0,0,0,0,0,0,0,0,0,0,0,0,0,0,0,0,0,0,0,0,0,0,0,0,0,0,0,0,0,0,0,0,0,0,0,0,0,0,0,0,0],"split_type":[0,0,0,0,0,0,0,0,0,0,0,0,0,0,0,0,0,0,0,0,0,0,0,0,0,0,0,0,0,0,0,0,0,0,0,0,0,0,0,0,0,0,0,0,0,0,0,0,0,0,0,0,0,0,0,0,0,0,0,0,0,0,0,0,0,0,0,0,0,0,0,0,0,0,0,0,0,0,0,0,0,0,0,0,0,0,0,0,0,0,0,0,0,0,0,0,0,0,0,0,0,0,0,0,0,0,0],"sum_hessian":[3.2132756E4,5.1089816E2,3.1621857E4,1.7111537E2,3.3978278E2,7.0632587E2,3.0915531E4,1.0516277E2,6.59526E1,2.601586E2,7.962417E1,3.875014E2,3.1882443E2,3.0506473E4,4.0905783E2,2.5985124E0,1.0256426E2,3.414756E1,3.1805037E1,2.277891E1,2.373797E2,1.1880922E1,6.774325E1,3.6821884E2,1.9282553E1,2.431226E2,7.570184E1,1.3526987E3,2.9153775E4,1.4973424E2,2.5932358E2,1.1140344E0,1.484478E0,2.25881E1,1.1559461E1,1.601716E0,3.0203321E1,1.1713862E0,2.1607525E1,2.0160297E2,3.577674E1,7.2182474E0,4.6626754E0,5.7135997E0,6.2029648E1,2.25808E0,3.6596075E2,1.4572454E1,4.7100983E0,1.9240244E1,2.2388235E2,3.0580467E1,4.512138E1,4.2340344E2,9.292953E2,2.8074793E4,1.078981E3,7.1907326E1,7.782692E1,2.4237792E0,2.568998E2,5.8713446E0,5.688116E0,1.0124626E1,2.0078695E1,8.0834E1,1.2076897E2,2.4440447E1,1.1336293E1,1.0230875E0,6.19516E0,1.2874246E0,3.3752508E0,2.3953915E0,3.3182085E0,2.151466E0,5.987818E1,1.218045E0,1.0400351E0,3.649155E2,1.0452753E0,1.0386581E0,1.3533796E1,2.3365738E0,2.3735244E0,1.8197382E1,1.0428622E0,1.679965E1,2.070827E2,1.8780668E1,1.1799798E1,1.2331223E0,4.3888256E1,1.9983482E2,2.2356862E2,1.4105239E0,9.2788477E2,2.709638E4,9.784135E2,3.6664024E1,1.0423169E3,1.4583657E1,5.7323666E1,4.9311743E0,7.2895744E1,2.3884744E2,1.8052351E1],"tree_param":{"num_deleted":"0","num_feature":"36","num_nodes":"107","size_leaf_vector":"1"}},{"base_weights":[6.062368E-1,4.481983E-1,6.2383485E-1,4.92246E-1,2.1239114E-1,4.6603677E-1,6.272492E-1,5.742392E-1,4.2161515E-1,1.3449689E-2,3.9698407E-1,-1.8021503E-2,5.305757E-1,6.292231E-1,5.329691E-1,4.6405962E-1,6.2178344E-1,3.0763817E-1,6.1454093E-1,-9.1132194E-2,4.9728987E-1,4.3638965E-1,-8.219716E-2,-2.0931078E-1,5.236113E-1,5.973903E-1,2.899696E-1,5.868737E-1,6.31451E-1,2.0178619E-1,5.9422654E-1,5.356765E-1,1.6226341E-1,6.264212E-1,2.2533007E-1,6.8893653E-1,2.3921087E-1,2.0211826E-1,6.166954E-1,-1.1961864E-1,8.7991333E-1,5.534448E-1,-5.00327E-1,3.7699413E-1,1.9183032E-1,-2.8103283E-1,1.8604091E-1,5.521101E-1,-3.5007554E-1,1.6081353E-1,1.9220036E-1,3.0926767E-1,6.17831E-1,5.2159774E-1,1.317978E-1,-7.9218054E-1,5.895061E-1,5.8656317E-1,6.324324E-1,5.2237654E-1,-2.0850241E-1,-3.4517792E-1,6.065437E-1,1.1081306E-1,1.7289871E-1,1.8679653E-1,1.9919487E-2,1.9035697E-1,1.6459128E-1,-1.9763765E-1,1.3281365E-1,2.105268E-1,-1.4178975E-1,-3.787967E-2,9.4143875E-2,-1.250156E-1,1.5358555E-1,1.479331E-1,1.8794733E-1,-4.5587495E-2,1.583241E-1,3.6168492E-1,1.7186543E-1,5.2813224E-2,2.058409E-1,7.0705586E-3,-2.4158563E-1,-4.7450628E-2,1.236674E-1,4.257496E-2,-1.534122E-1,-8.330104E-2,2.285611E-1,1.7250866E-1,-1.4289673E-1,1.3115504E-1,-1.4951865E-1,-5.8984824E-2,1.4318115E-1,-6.058121E-2,1.8622792E-1,2.1009952E-1,6.338031E-2,1.9388734E-1,-4.741307E-3,-7.7895224E-2,-2.877688E-1,1.5788883E-1,1.8934943E-1,1.360362E-1,1.9039078E-1,1.9006988E-1,1.7763662E-1,2.0385313E-1,-1.984299E-1,-2.3245716E-1,1.2507144E-1,-1.8248922E-1,1.1147844E-1,-8.686575E-2,1.8325423E-1],"categories":[],"categories_nodes":[],"categories_segments":[],"categories_sizes":[],"default_left":[0,0,0,0,0,0,0,0,0,0,0,0,0,0,0,0,0,0,0,0,0,0,0,0,0,0,0,0,0,0,0,0,0,0,0,0,0,0,0,0,0,0,0,0,0,0,0,0,0,0,0,0,0,0,0,0,0,0,0,0,0,0,0,0,0,0,0,0,0,0,0,0,0,0,0,0,0,0,0,0,0,0,0,0,0,0,0,0,0,0,0,0,0,0,0,0,0,0,0,0,0,0,0,0,0,0,0,0,0,0,0,0,0,0,0,0,0,0,0,0,0],"id":12,"left_children":[1,3,5,7,9,11,13,15,17,19,21,23,25,27,29,31,33,35,37,39,41,43,45,47,49,51,53,55,57,59,61,63,65,67,69,71,73,75,77,79,81,83,85,87,-1,89,-1,91,93,95,-1,97,99,101,103,105,107,109,111,113,115,117,119,-1,-1,-1,-1,-1,-1,-1,-1,-1,-1,-1,-1,-1,-1,-1,-1,-1,-1,-1,-1,-1,-1,-1,-1,-1,-1,-1,-1,-1,-1,-1,-1,-1,-1,-1,-1,-1,-1,-1,-1,-1,-1,-1,-1,-1,-1,-1,-1,-1,-1,-1,-1,-1,-1,-1,-1,-1,-1],"loss_changes":[1.223418E2,4.5817017E1,2.1082031E1,2.1327576E1,2.5613754E1,2.637854E1,6.888672E0,8.726074E0,4.3891876E1,1.7087666E1,6.8680573E0,1.0497961E1,1.180011E1,3.21875E0,1.616603E1,1.1210144E1,2.0637207E0,3.2767067E1,5.359802E-1,7.7892146E0,3.6390162E0,3.7929077E0,4.131309E0,8.211623E0,1.0204353E0,3.2364655E0,5.933014E0,7.4176025E0,1.2197266E0,1.679014E1,8.042191E0,2.6400452E0,4.4463253E0,3.9849854E-1,3.2567675E0,3.1834335E0,2.9258995E1,1.2393755E0,5.8584595E-1,5.748458E0,1.12968445E-1,2.7482586E0,6.1384976E-1,4.990387E0,0E0,2.29105E0,0E0,2.310743E0,7.7194195E0,1.6368375E0,0E0,3.5406377E0,1.4276276E0,3.5203133E0,7.5041394E0,1.1339235E-1,4.701416E0,4.7443542E0,1.2382812E0,1.3745438E1,2.0279747E1,1.9985332E0,2.755066E0,0E0,0E0,0E0,0E0,0E0,0E0,0E0,0E0,0E0,0E0,0E0,0E0,0E0,0E0,0E0,0E0,0E0,0E0,0E0,0E0,0E0,0E0,0E0,0E0,0E0,0E0,0E0,0E0,0E0,0E0,0E0,0E0,0E0,0E0,0E0,0E0,0E0,0E0,0E0,0E0,0E0,0E0,0E0,0E0,0E0,0E0,0E0,0E0,0E0,0E0,0E0,0E0,0E0,0E0,0E0,0E0,0E0,0E0],"parents":[2147483647,0,0,1,1,2,2,3,3,4,4,5,5,6,6,7,7,8,8,9,9,10,10,11,11,12,12,13,13,14,14,15,15,16,16,17,17,18,18,19,19,20,20,21,21,22,22,23,23,24,24,25,25,26,26,27,27,28,28,29,29,30,30,31,31,32,32,33,33,34,34,35,35,36,36,37,37,38,38,39,39,40,40,41,41,42,42,43,43,45,45,47,47,48,48,49,49,51,51,52,52,53,53,54,54,55,55,56,56,57,57,58,58,59,59,60,60,61,61,62,62],"right_children":[2,4,6,8,10,12,14,16,18,20,22,24,26,28,30,32,34,36,38,40,42,44,46,48,50,52,54,56,58,60,62,64,66,68,70,72,74,76,78,80,82,84,86,88,-1,90,-1,92,94,96,-1,98,100,102,104,106,108,110,112,114,116,118,120,-1,-1,-1,-1,-1,-1,-1,-1,-1,-1,-1,-1,-1,-1,-1,-1,-1,-1,-1,-1,-1,-1,-1,-1,-1,-1,-1,-1,-1,-1,-1,-1,-1,-1,-1,-1,-1,-1,-1,-1,-1,-1,-1,-1,-1,-1,-1,-1,-1,-1,-1,-1,-1,-1,-1,-1,-1,-1],"split_conditions":[-1.991342E0,1E0,0E0,-1.2151515E0,5.263158E-2,-7.57693E-1,2.2373083E0,-5.0327787E0,3.116883E-1,2.3722944E-1,1.5644871E1,4.0865803E0,3.194805E-1,-8.512884E-1,2.01E2,-2.1303158E0,1.4774892E1,1E0,-4.6522727E0,1.028E3,2.0519412E2,1.4632034E-1,6.199406E2,-1.822983E0,2.76E2,-4.0519482E-1,-8.7445885E-1,3.4293553E-3,-1.0525782E0,1E0,4.038968E-28,1.07891174E2,1E0,2.912568E0,1.25363235E2,1.642818E2,-3.2461274E0,9.18E2,4.04329E-1,-4.028777E-1,1.029209E3,2.743956E1,-4.865801E0,5.4545455E-2,1.9183032E-1,7.32E2,1.8604091E-1,1.4888403E1,1E0,2.75E2,1.9220036E-1,-3.7868798E-1,2.770083E-3,2.0972059E0,1E0,4.194805E0,4.35E2,2.3270197E1,6.995671E-1,5.792731E1,1.093264E1,5.802036E1,-4.2990355E0,1.1081306E-1,1.7289871E-1,1.8679653E-1,1.9919487E-2,1.9035697E-1,1.6459128E-1,-1.9763765E-1,1.3281365E-1,2.105268E-1,-1.4178975E-1,-3.787967E-2,9.4143875E-2,-1.250156E-1,1.5358555E-1,1.479331E-1,1.8794733E-1,-4.5587495E-2,1.583241E-1,3.6168492E-1,1.7186543E-1,5.2813224E-2,2.058409E-1,7.0705586E-3,-2.4158563E-1,-4.7450628E-2,1.236674E-1,4.257496E-2,-1.534122E-1,-8.330104E-2,2.285611E-1,1.7250866E-1,-1.4289673E-1,1.3115504E-1,-1.4951865E-1,-5.8984824E-2,1.4318115E-1,-6.058121E-2,1.8622792E-1,2.1009952E-1,6.338031E-2,1.9388734E-1,-4.741307E-3,-7.7895224E-2,-2.877688E-1,1.5788883E-1,1.8934943E-1,1.360362E-1,1.9039078E-1,1.9006988E-1,1.7763662E-1,2.0385313E-1,-1.984299E-1,-2.3245716E-1,1.2507144E-1,-1.8248922E-1,1.1147844E-1,-8.686575E-2,1.8325423E-1],"split_indices":[16,11,11,32,13,8,9,9,32,32,21,20,8,9,1,32,21,2,31,1,26,32,26,19,1,8,12,26,8,2,17,25,2,13,7,34,30,0,32,6,4,7,13,6,0,1,0,7,2,4,0,18,7,16,2,13,1,14,8,10,26,33,30,0,0,0,0,0,0,0,0,0,0,0,0,0,0,0,0,0,0,0,0,0,0,0,0,0,0,0,0,0,0,0,0,0,0,0,0,0,0,0,0,0,0,0,0,0,0,0,0,0,0,0,0,0,0,0,0,0,0],"split_type":[0,0,0,0,0,0,0,0,0,0,0,0,0,0,0,0,0,0,0,0,0,0,0,0,0,0,0,0,0,0,0,0,0,0,0,0,0,0,0,0,0,0,0,0,0,0,0,0,0,0,0,0,0,0,0,0,0,0,0,0,0,0,0,0,0,0,0,0,0,0,0,0,0,0,0,0,0,0,0,0,0,0,0,0,0,0,0,0,0,0,0,0,0,0,0,0,0,0,0,0,0,0,0,0,0,0,0,0,0,0,0,0,0,0,0,0,0,0,0,0,0],"sum_hessian":[4.408889E4,4.420165E3,3.9668723E4,3.7235378E3,6.966273E2,8.430613E2,3.8825664E4,1.7198668E3,2.0036711E3,3.3579916E2,3.608282E2,9.9265495E1,7.437958E2,3.8023902E4,8.017616E2,5.2168024E2,1.1981866E3,1.2611824E3,7.424887E2,2.7678403E2,5.901512E1,3.3349265E2,2.733555E1,7.381108E1,2.5454416E1,5.809791E2,1.6281665E2,1.9136311E3,3.611027E4,1.2582008E2,6.759415E2,4.210009E2,1.0067931E2,1.1837588E3,1.4427842E1,1.9051347E2,1.070669E3,4.351281E0,7.381374E2,2.6974756E2,7.036459E0,5.6291748E1,2.7233765E0,2.602267E2,7.326592E1,2.1771688E1,5.5638633E0,1.1060533E1,6.2750546E1,6.7884717E0,1.8665945E1,3.9555397E1,5.414237E2,6.513489E1,9.768176E1,3.0744524E0,1.9105566E3,7.8540125E2,3.5324867E4,7.047742E1,5.5342667E1,8.398319E0,6.675432E2,8.468037E1,3.3632053E2,1.6404013E1,8.42753E1,1.0656067E3,1.1815215E2,2.4466033E0,1.1981239E1,1.8882541E2,1.6880767E0,1.8138228E2,8.892866E2,1.3366289E0,3.0146525E0,5.7980198E1,6.801572E2,2.5764212E2,1.2105457E1,1.9942204E0,5.0422387E0,1.5248563E1,4.1043182E1,1.3414986E0,1.3818779E0,1.5857445E1,2.4436926E2,7.8117456E0,1.3959942E1,2.1664867E0,8.894046E0,7.108257E0,5.564229E1,5.020471E0,1.7680004E0,9.81887E0,2.9736526E1,1.685526E0,5.397382E2,4.053317E1,2.4601719E1,2.1023176E1,7.6658585E1,1.3440707E0,1.7303818E0,7.643761E2,1.1461805E3,2.1115755E2,5.742437E2,3.4344133E4,9.8073663E2,6.2594837E1,7.8825765E0,2.891706E1,2.6425606E1,6.2539144E0,2.144405E0,2.8738747E0,6.646694E2],"tree_param":{"num_deleted":"0","num_feature":"36","num_nodes":"121","size_leaf_vector":"1"}},{"base_weights":[-5.266426E-1,-3.2806993E-1,-5.553416E-1,-4.9838102E-1,-2.2713074E-1,-4.7995803E-1,-5.571088E-1,-5.399606E-1,-1.3317585E-1,-1.16337806E-1,-5.026053E-1,-4.2042986E-1,-1.6678642E-1,-5.5780023E-1,-4.0022975E-1,-5.5489844E-1,-3.8402817E-1,-3.8523683E-1,-1.1973839E-2,-5.975922E-1,-5.006627E-2,-3.2797977E-1,-5.4046893E-1,-5.2610296E-1,-2.7810732E-1,-4.9815878E-1,-5.5835485E-1,1.935218E-3,-4.4378006E-1,-5.5588263E-1,-3.3028007E-1,-1.6709945E-1,-5.00998E-1,5.9854135E-2,-4.5500052E-1,1.6570787E-1,-3.0738378E-1,-1.8106085E-1,5.8160555E-2,-3.1644452E-1,6.2355522E-2,-9.918545E-2,-4.607166E-1,5.766959E-2,-5.4246086E-1,-1.12153456E-1,-5.314904E-1,-1.6746357E-1,-8.403659E-2,-2.952942E-1,-5.1758635E-1,-4.4599956E-1,-5.585409E-1,4.1871902E-1,-3.857181E-1,-1.1842165E-3,-4.6333805E-1,-1.2705818E-1,-1.6734451E-1,6.477603E-2,-1.3919371E-1,-7.473581E-2,1.9578117E-1,-5.369511E-2,-1.6223903E-1,1.3720122E-1,-1.2590232E-1,-1.5947935E-1,-2.3574486E-2,1.6255859E-1,-3.053519E-2,-1.4214063E-1,6.2105585E-2,-1.3928321E-1,5.3652752E-2,1.5082118E-1,-6.9741895E-3,-1.4415443E-1,2.1998815E-2,1.1543214E-1,-1.504042E-1,-1.251363E-1,-1.6556233E-1,5.6436595E-2,-9.883983E-2,-6.348856E-2,-1.61071E-1,1.8224992E-1,-1.0865294E-1,1.2679651E-1,-1.2704726E-1,3.8368855E-2,-1.5672994E-1,6.858164E-2,-1.6452861E-1,-1.6174749E-1,-1.6779464E-1,-5.7421908E-2,2.3870946E-1,-1.569066E-1,3.9010167E-2,1.7138107E-1,-9.2442974E-2,-1.420487E-1,5.0877836E-2],"categories":[],"categories_nodes":[],"categories_segments":[],"categories_sizes":[],"default_left":[0,0,0,0,0,0,0,0,0,0,0,0,0,0,0,0,0,0,0,0,0,0,0,0,0,0,0,0,0,0,0,0,0,0,0,0,0,0,0,0,0,0,0,0,0,0,0,0,0,0,0,0,0,0,0,0,0,0,0,0,0,0,0,0,0,0,0,0,0,0,0,0,0,0,0,0,0,0,0,0,0,0,0,0,0,0,0,0,0,0,0,0,0,0,0,0,0,0,0,0,0,0,0,0,0],"id":13,"left_children":[1,3,5,7,9,11,13,15,17,19,21,23,-1,25,27,29,31,33,35,37,39,41,43,45,47,49,51,53,55,57,59,61,63,65,67,69,71,-1,-1,73,75,77,79,-1,81,83,85,-1,87,89,91,93,95,97,99,101,103,-1,-1,-1,-1,-1,-1,-1,-1,-1,-1,-1,-1,-1,-1,-1,-1,-1,-1,-1,-1,-1,-1,-1,-1,-1,-1,-1,-1,-1,-1,-1,-1,-1,-1,-1,-1,-1,-1,-1,-1,-1,-1,-1,-1,-1,-1,-1,-1],"loss_changes":[1.446958E2,5.511624E1,2.690918E0,1.8069489E1,6.1562614E1,2.1005478E0,2.130371E0,2.2844543E0,3.7665834E0,4.5934643E1,3.6497955E0,4.2669907E0,0E0,4.3652344E-1,1.7301607E0,3.2226562E-2,2.3771887E0,1.2708583E0,4.480554E0,9.372101E-1,3.7987465E1,3.1637926E0,7.9623413E-1,3.134575E-1,6.865554E0,6.679802E-1,1.9726562E-1,1.8810765E0,7.706642E-1,1.1993408E-2,5.9115076E-1,2.5476818E0,7.0430756E-1,1.3947799E0,9.598751E-1,5.4227095E0,2.8413842E0,0E0,0E0,2.7645851E1,3.3653404E1,2.6716025E0,2.4810123E0,0E0,3.2803345E-1,2.8492683E-1,1.7182541E-1,0E0,1.4894606E1,2.0685816E0,6.572876E-1,2.911806E0,2.0019531E-2,1.4422355E0,4.953583E-1,1.014727E0,6.2882805E-1,0E0,0E0,0E0,0E0,0E0,0E0,0E0,0E0,0E0,0E0,0E0,0E0,0E0,0E0,0E0,0E0,0E0,0E0,0E0,0E0,0E0,0E0,0E0,0E0,0E0,0E0,0E0,0E0,0E0,0E0,0E0,0E0,0E0,0E0,0E0,0E0,0E0,0E0,0E0,0E0,0E0,0E0,0E0,0E0,0E0,0E0,0E0,0E0],"parents":[2147483647,0,0,1,1,2,2,3,3,4,4,5,5,6,6,7,7,8,8,9,9,10,10,11,11,13,13,14,14,15,15,16,16,17,17,18,18,19,19,20,20,21,21,22,22,23,23,24,24,25,25,26,26,27,27,28,28,29,29,30,30,31,31,32,32,33,33,34,34,35,35,36,36,39,39,40,40,41,41,42,42,44,44,45,45,46,46,48,48,49,49,50,50,51,51,52,52,53,53,54,54,55,55,56,56],"right_children":[2,4,6,8,10,12,14,16,18,20,22,24,-1,26,28,30,32,34,36,38,40,42,44,46,48,50,52,54,56,58,60,62,64,66,68,70,72,-1,-1,74,76,78,80,-1,82,84,86,-1,88,90,92,94,96,98,100,102,104,-1,-1,-1,-1,-1,-1,-1,-1,-1,-1,-1,-1,-1,-1,-1,-1,-1,-1,-1,-1,-1,-1,-1,-1,-1,-1,-1,-1,-1,-1,-1,-1,-1,-1,-1,-1,-1,-1,-1,-1,-1,-1,-1,-1,-1,-1,-1,-1],"split_conditions":[-1.6363636E0,-1.2151515E0,-1.1280906E0,6.0369678E0,3.0649352E-1,4.33E2,9.451123E1,2.912568E0,-1.9100853E0,1E0,1.546979E0,3.3875323E2,-1.6678642E-1,2.746498E-26,2.01E2,1.200672E3,2.065858E1,-4.6249475E0,3.194805E-1,1.6639325E2,-4.008658E0,5.021645E-1,-2.2588744E0,-1.7203463E0,-5.511165E-1,3.76E2,-3.607951E1,1.5858841E0,2.746498E-26,3.0973685E2,4.1051514E2,7.46187E1,5.3785677E0,6.36E2,1E0,3.5056276E0,-5.4502163E0,-1.8106085E-1,5.8160555E-2,-2.6666668E-1,1.6315789E0,3.865258E2,-1.4578192E0,5.766959E-2,-1.2868399E1,-1.0239173E0,-2.0246513E0,-1.6746357E-1,-7.310606E-1,-3.1578946E-1,0E0,1.6368965E0,-5.4938394E-1,0E0,9.677056E0,7.82E2,8.87E2,-1.2705818E-1,-1.6734451E-1,6.477603E-2,-1.3919371E-1,-7.473581E-2,1.9578117E-1,-5.369511E-2,-1.6223903E-1,1.3720122E-1,-1.2590232E-1,-1.5947935E-1,-2.3574486E-2,1.6255859E-1,-3.053519E-2,-1.4214063E-1,6.2105585E-2,-1.3928321E-1,5.3652752E-2,1.5082118E-1,-6.9741895E-3,-1.4415443E-1,2.1998815E-2,1.1543214E-1,-1.504042E-1,-1.251363E-1,-1.6556233E-1,5.6436595E-2,-9.883983E-2,-6.348856E-2,-1.61071E-1,1.8224992E-1,-1.0865294E-1,1.2679651E-1,-1.2704726E-1,3.8368855E-2,-1.5672994E-1,6.858164E-2,-1.6452861E-1,-1.6174749E-1,-1.6779464E-1,-5.7421908E-2,2.3870946E-1,-1.569066E-1,3.9010167E-2,1.7138107E-1,-9.2442974E-2,-1.420487E-1,5.0877836E-2],"split_indices":[16,32,16,13,32,1,10,13,32,2,22,4,0,14,1,25,14,32,8,35,13,32,21,9,32,0,13,32,14,4,4,7,35,1,11,19,12,0,0,32,23,4,31,0,5,6,30,0,30,22,11,34,9,31,19,0,1,0,0,0,0,0,0,0,0,0,0,0,0,0,0,0,0,0,0,0,0,0,0,0,0,0,0,0,0,0,0,0,0,0,0,0,0,0,0,0,0,0,0,0,0,0,0,0,0],"split_type":[0,0,0,0,0,0,0,0,0,0,0,0,0,0,0,0,0,0,0,0,0,0,0,0,0,0,0,0,0,0,0,0,0,0,0,0,0,0,0,0,0,0,0,0,0,0,0,0,0,0,0,0,0,0,0,0,0,0,0,0,0,0,0,0,0,0,0,0,0,0,0,0,0,0,0,0,0,0,0,0,0,0,0,0,0,0,0,0,0,0,0,0,0,0,0,0,0,0,0,0,0,0,0,0,0],"sum_hessian":[2.5421385E4,3.2116812E3,2.2209705E4,1.1936837E3,2.0179974E3,5.149841E2,2.169472E4,1.0712415E3,1.2244222E2,1.4401906E3,5.778069E2,2.9244446E2,2.2253963E2,2.1596984E4,9.77359E1,9.7525665E2,9.598486E1,3.9050774E1,8.339145E1,1.7334764E2,1.2668429E3,1.0468154E2,4.7312534E2,1.662838E2,1.2616066E2,2.0726895E2,2.1389715E4,9.643028E0,8.809287E1,9.6953345E2,5.723165E0,3.447575E1,6.1509117E1,5.310694E0,3.3740078E1,5.234581E1,3.1045639E1,1.7229115E2,1.0564903E0,3.754401E2,8.914028E2,3.9075527E1,6.560601E1,1.0238198E0,4.7210153E2,2.4166214E0,1.6386717E2,5.086716E1,7.52935E1,1.9530396E1,1.8773856E2,3.932512E1,2.135039E4,4.608298E0,5.03473E0,3.772898E0,8.431998E1,1.7119574E1,9.524139E2,1.0045018E0,4.718663E0,3.197264E1,2.5031118E0,7.3705664E0,5.413855E1,2.9290605E0,2.3816335E0,2.7692663E1,6.047415E0,2.132804E1,3.101777E1,2.3516546E1,7.5290933E0,2.8918658E2,8.6253525E1,1.4428079E2,7.47122E2,1.1615377E1,2.746015E1,2.6198163E0,6.2986195E1,3.6145084E1,4.3595642E2,1.0710312E0,1.3455902E0,3.3942144E0,1.6047296E2,2.1257368E1,5.4036133E1,2.6109836E0,1.691941E1,1.2099593E0,1.865286E2,5.021477E0,3.4303642E1,8.471717E2,2.0503219E4,1.9479244E0,2.6603737E0,3.9650543E0,1.0696754E0,1.016375E0,2.7565231E0,8.323606E1,1.0839142E0],"tree_param":{"num_deleted":"0","num_feature":"36","num_nodes":"105","size_leaf_vector":"1"}},{"base_weights":[-5.250267E-1,-5.3798646E-1,-2.1279079E-1,-2.0307507E-1,-5.461388E-1,-1.3885262E-2,-4.4125637E-1,-4.9761137E-1,1.2040413E-1,-4.450132E-1,-5.506134E-1,1.105165E-1,-4.897317E-1,-4.9329954E-1,-8.5101835E-2,-5.240808E-1,-2.4646822E-1,2.5424433E-1,-3.68786E-1,-2.6850063E-1,-5.427596E-1,-5.548652E-1,-4.520223E-1,-2.7161834E-1,2.550693E-1,-5.145205E-1,3.642513E-1,6.290699E-1,-5.0439763E-1,3.4470642E-1,-5.2753186E-1,1.22397035E-1,-5.300608E-1,7.518677E-1,-3.7662938E-1,-4.8927203E-1,3.111302E-1,-1.3199762E-1,-1.6524759E-1,-5.503016E-1,-2.9389132E-2,1.9765468E-1,-5.4645115E-1,-5.5585027E-1,-5.015005E-1,2.4207792E-1,-4.7828993E-1,1.9274939E-2,-3.6694333E-1,-4.6761808E-1,3.3584434E-1,4.0060643E-2,-5.28098E-1,-1.136665E-1,3.4930262E-1,-2.6326943E-3,2.5650933E-1,-8.405122E-2,-5.15933E-1,-1.4920506E-1,4.9676135E-1,3.3146265E-4,-5.5368084E-1,-8.92398E-2,1.3726766E-1,-1.2371189E-1,-1.6473746E-1,3.133787E-1,1.4084937E-2,-1.4653409E-1,7.09484E-2,-1.6289133E-1,4.0301904E-2,-2.8612418E-2,1.2239339E-1,-1.1851493E-1,6.262653E-2,1.9791058E-1,-1.6851276E-1,3.386093E-1,-3.500436E-2,-2.0752886E-2,-1.6479482E-1,-1.4752711E-1,-1.6692324E-1,3.803996E-1,-1.5328571E-1,-1.8116967E-1,2.968718E-1,-1.1421237E-1,-1.6292422E-1,1.5933812E-1,-6.490313E-2,-1.4305788E-1,-3.28878E-2,-1.6725802E-1,2.7844205E-1,1.1611673E-1,-1.2271185E-1,-1.6093242E-1,-4.2741187E-2,-1.1752873E-1,3.860657E-1,-1.6781673E-1,-1.272244E-1,1.7536296E-1,-1.8982632E-1,-4.107405E-2,-1.7359817E-1],"categories":[],"categories_nodes":[],"categories_segments":[],"categories_sizes":[],"default_left":[0,0,0,0,0,0,0,0,0,0,0,0,0,0,0,0,0,0,0,0,0,0,0,0,0,0,0,0,0,0,0,0,0,0,0,0,0,0,0,0,0,0,0,0,0,0,0,0,0,0,0,0,0,0,0,0,0,0,0,0,0,0,0,0,0,0,0,0,0,0,0,0,0,0,0,0,0,0,0,0,0,0,0,0,0,0,0,0,0,0,0,0,0,0,0,0,0,0,0,0,0,0,0,0,0,0,0,0,0],"id":14,"left_children":[1,3,5,7,9,11,13,15,17,19,21,23,25,27,29,31,33,35,37,39,41,43,45,47,49,51,53,55,57,59,61,63,65,67,69,71,73,75,-1,77,79,-1,81,83,85,87,89,91,93,95,97,-1,99,-1,-1,-1,-1,101,103,-1,105,-1,107,-1,-1,-1,-1,-1,-1,-1,-1,-1,-1,-1,-1,-1,-1,-1,-1,-1,-1,-1,-1,-1,-1,-1,-1,-1,-1,-1,-1,-1,-1,-1,-1,-1,-1,-1,-1,-1,-1,-1,-1,-1,-1,-1,-1,-1,-1],"loss_changes":[1.0270361E2,6.649756E1,4.6084995E1,5.5445915E1,1.0530762E1,3.2211815E1,8.70713E0,1.8948135E0,1.8285696E1,1.7354996E1,9.307617E0,2.3903038E1,2.5746841E0,5.444641E0,1.1855551E1,1.1262589E0,4.3007574E0,9.404636E0,2.5177488E0,2.4476345E1,3.2514648E0,8.7060547E-1,1.740178E1,3.3041983E0,1.846145E1,1.0384445E0,2.6806931E0,6.525351E-1,1.93573E0,4.311451E0,4.2423248E-1,6.0453755E-1,3.843155E-1,7.556765E-1,2.036365E0,6.0659885E-1,8.063116E0,2.54168E0,0E0,2.6728516E0,2.0117014E1,0E0,8.5131836E-1,4.970703E-1,7.4443054E0,2.2879194E1,5.5710297E0,3.7688384E0,2.482089E0,4.525869E0,1.093943E1,0E0,2.708931E-1,0E0,0E0,0E0,0E0,5.6070166E0,1.347641E0,0E0,3.085453E0,0E0,2.247982E-1,0E0,0E0,0E0,0E0,0E0,0E0,0E0,0E0,0E0,0E0,0E0,0E0,0E0,0E0,0E0,0E0,0E0,0E0,0E0,0E0,0E0,0E0,0E0,0E0,0E0,0E0,0E0,0E0,0E0,0E0,0E0,0E0,0E0,0E0,0E0,0E0,0E0,0E0,0E0,0E0,0E0,0E0,0E0,0E0,0E0,0E0],"parents":[2147483647,0,0,1,1,2,2,3,3,4,4,5,5,6,6,7,7,8,8,9,9,10,10,11,11,12,12,13,13,14,14,15,15,16,16,17,17,18,18,19,19,20,20,21,21,22,22,23,23,24,24,25,25,26,26,27,27,28,28,29,29,30,30,31,31,32,32,33,33,34,34,35,35,36,36,37,37,39,39,40,40,42,42,43,43,44,44,45,45,46,46,47,47,48,48,49,49,50,50,52,52,57,57,58,58,60,60,62,62],"right_children":[2,4,6,8,10,12,14,16,18,20,22,24,26,28,30,32,34,36,38,40,42,44,46,48,50,52,54,56,58,60,62,64,66,68,70,72,74,76,-1,78,80,-1,82,84,86,88,90,92,94,96,98,-1,100,-1,-1,-1,-1,102,104,-1,106,-1,108,-1,-1,-1,-1,-1,-1,-1,-1,-1,-1,-1,-1,-1,-1,-1,-1,-1,-1,-1,-1,-1,-1,-1,-1,-1,-1,-1,-1,-1,-1,-1,-1,-1,-1,-1,-1,-1,-1,-1,-1,-1,-1,-1,-1,-1,-1],"split_conditions":[2.6854532E1,0E0,1.6806917E2,1.0192127E0,-8.827867E-1,2E-1,1E0,3.194805E-1,3.02E2,4.772205E1,8.2781386E-1,-2.3714263E0,2.3177343E1,2.9987361E-2,6.931838E0,9.947598E-14,9.8615095E-2,1E0,4.3532468E2,1E0,5.8079615E-2,1.5192641E0,1.84E2,-1.1513167E1,1E0,1.748018E2,6.559452E1,-3.2544712E1,2.01E2,6.450637E2,4.265692E0,8.665781E2,-2.2337662E-1,4.539466E-1,8.480538E-1,3.9286427E1,1.5659354E0,2.6406926E-1,-1.6524759E-1,3.4293553E-3,2.06E2,1.9765468E-1,2.01E2,2.770083E-3,5.8079615E-2,1E0,5.5944153E1,-3.7756002E0,-2.8445494E0,1.6320923E2,-1.6370506E0,4.0060643E-2,9.5920876E1,-1.136665E-1,3.4930262E-1,-2.6326943E-3,2.5650933E-1,-1.322314E0,1.0009307E2,-1.4920506E-1,4.750335E2,3.3146265E-4,1.1797402E1,-8.92398E-2,1.3726766E-1,-1.2371189E-1,-1.6473746E-1,3.133787E-1,1.4084937E-2,-1.4653409E-1,7.09484E-2,-1.6289133E-1,4.0301904E-2,-2.8612418E-2,1.2239339E-1,-1.1851493E-1,6.262653E-2,1.9791058E-1,-1.6851276E-1,3.386093E-1,-3.500436E-2,-2.0752886E-2,-1.6479482E-1,-1.4752711E-1,-1.6692324E-1,3.803996E-1,-1.5328571E-1,-1.8116967E-1,2.968718E-1,-1.1421237E-1,-1.6292422E-1,1.5933812E-1,-6.490313E-2,-1.4305788E-1,-3.28878E-2,-1.6725802E-1,2.7844205E-1,1.1611673E-1,-1.2271185E-1,-1.6093242E-1,-4.2741187E-2,-1.1752873E-1,3.860657E-1,-1.6781673E-1,-1.272244E-1,1.7536296E-1,-1.8982632E-1,-4.107405E-2,-1.7359817E-1],"split_indices":[17,11,25,17,8,32,11,8,1,25,8,32,12,35,21,35,35,2,4,2,33,9,1,16,2,1,26,23,1,4,14,0,8,8,17,24,14,32,0,26,1,0,1,7,33,2,14,18,32,33,30,0,35,0,0,0,0,22,17,0,24,0,22,0,0,0,0,0,0,0,0,0,0,0,0,0,0,0,0,0,0,0,0,0,0,0,0,0,0,0,0,0,0,0,0,0,0,0,0,0,0,0,0,